{"learner":{"attributes":{"best_iteration":"171","best_score":"0.662890041525304"},"feature_names":["Age","Systolic_BP","Diastolic_BP","Cholesterol_HDL","Cholesterol_LDL","Average_Glucose","BMI","Gender_Male","Smoking_Status_Former Smoker","Smoking_Status_Never Smoked","Alcohol_Consumption_Light","Alcohol_Consumption_Moderate","Alcohol_Consumption_nan","Physical_Activity_Light","Physical_Activity_Moderate","Physical_Activity_Sedentary","Work_Type_Private","Work_Type_Retired","Work_Type_Self-Employed","Work_Type_Student","Residence_Type_Urban","Hypertension","Diabetes","Heart_Disease","Family_History_Stroke"],"feature_types":["float","float","float","float","float","float","float","float","float","float","float","float","float","float","float","float","float","float","float","float","float","float","float","float","float"],"gradient_booster":{"model":{"gbtree_model_param":{"num_parallel_tree":"1","num_trees":"272"},"iteration_indptr":[0,1,2,3,4,5,6,7,8,9,10,11,12,13,14,15,16,17,18,19,20,21,22,23,24,25,26,27,28,29,30,31,32,33,34,35,36,37,38,39,40,41,42,43,44,45,46,47,48,49,50,51,52,53,54,55,56,57,58,59,60,61,62,63,64,65,66,67,68,69,70,71,72,73,74,75,76,77,78,79,80,81,82,83,84,85,86,87,88,89,90,91,92,93,94,95,96,97,98,99,100,101,102,103,104,105,106,107,108,109,110,111,112,113,114,115,116,117,118,119,120,121,122,123,124,125,126,127,128,129,130,131,132,133,134,135,136,137,138,139,140,141,142,143,144,145,146,147,148,149,150,151,152,153,154,155,156,157,158,159,160,161,162,163,164,165,166,167,168,169,170,171,172,173,174,175,176,177,178,179,180,181,182,183,184,185,186,187,188,189,190,191,192,193,194,195,196,197,198,199,200,201,202,203,204,205,206,207,208,209,210,211,212,213,214,215,216,217,218,219,220,221,222,223,224,225,226,227,228,229,230,231,232,233,234,235,236,237,238,239,240,241,242,243,244,245,246,247,248,249,250,251,252,253,254,255,256,257,258,259,260,261,262,263,264,265,266,267,268,269,270,271,272],"tree_info":[0,0,0,0,0,0,0,0,0,0,0,0,0,0,0,0,0,0,0,0,0,0,0,0,0,0,0,0,0,0,0,0,0,0,0,0,0,0,0,0,0,0,0,0,0,0,0,0,0,0,0,0,0,0,0,0,0,0,0,0,0,0,0,0,0,0,0,0,0,0,0,0,0,0,0,0,0,0,0,0,0,0,0,0,0,0,0,0,0,0,0,0,0,0,0,0,0,0,0,0,0,0,0,0,0,0,0,0,0,0,0,0,0,0,0,0,0,0,0,0,0,0,0,0,0,0,0,0,0,0,0,0,0,0,0,0,0,0,0,0,0,0,0,0,0,0,0,0,0,0,0,0,0,0,0,0,0,0,0,0,0,0,0,0,0,0,0,0,0,0,0,0,0,0,0,0,0,0,0,0,0,0,0,0,0,0,0,0,0,0,0,0,0,0,0,0,0,0,0,0,0,0,0,0,0,0,0,0,0,0,0,0,0,0,0,0,0,0,0,0,0,0,0,0,0,0,0,0,0,0,0,0,0,0,0,0,0,0,0,0,0,0,0,0,0,0,0,0,0,0,0,0,0,0,0,0,0,0,0,0,0,0,0,0,0,0,0,0,0,0,0,0],"trees":[{"base_weights":[-6.5079213E-9,9.9078906E-1,-6.3558215E-1,4.5606297E-1,1.3012122E0,-1.0827838E0,-3.5944867E-1,-1.2733929E0,1.1368712E0,1.4826671E0,2.7905878E-1,-1.203155E0,-3.024889E-1,-2.4942358E-1,-1.6700819E0,-5.724138E-2,-8.445217E-1,6.261565E-1,1.3157835E0,1.5766186E0,6.36088E-1,6.735817E-1,-9.783702E-1,-1.2490404E0,2.7125776E-2,1.727765E-1,-5.4285713E-2,2.5121433E-1,-5.6719863E-1,-4.6807492E-1,-5.8125E-2,2.88536E-1,-1.2763886E0,1.3545843E0,4.744904E-2,1.5840986E0,1.016795E0,1.6864107E0,1.1153933E0,1.3237536E0,-1.1533918E0,-4.588235E-2,9.1029644E-1,-5.3513512E-2,2.673066E-2,-1.359526E0,-7.3792756E-1,1.030234E0,-3.692315E-1,-1.7167352E-2,7.7929616E-1,-7.8405184E-1,1.0128952E0,1.436096E-2,-4.588235E-2,-2.1641985E-2,3.8715795E-2,-4.9068023E-2,5.0792303E-3,5.1109576E-1,5.4368995E-2,3.9250165E-1,-4.588235E-2,2.3844443E-2,4.984324E-2,1.5220338E0,4.4191903E-1,1.1686655E0,5.1820163E-2,1.3565156E0,-2.4648415E-2,-5.385943E-3,4.7402855E-2,-5.385943E-3,-4.9565215E-2,1.3350388E0,-2.5606662E-1,-1.5162562E0,-8.739448E-1,2.9412925E-1,-1.0707353E0,7.904509E-3,4.265222E-2,4.166287E-1,-5.25E-2,-3.2382092E-1,6.083043E-1,8.942609E-1,-1.807667E-2,-8.864977E-1,1.3418506E0,8.9832E-2,1.3985546E0,-8.503662E-3,3.7548583E-2,-1.1172992E-2,2.578681E-2,2.968668E-2,5.1804144E-2,-1.1917E-2,4.4556376E-2,-1.6033353E-2,5.1375564E-2,4.838206E-2,2.6191564E-3,4.9409732E-2,2.7638227E-2,-2.8367376E-2,2.673066E-2,-4.717748E-2,-2.931533E-2,-5.478261E-2,-1.8366078E-2,2.2360183E-2,-1.6033353E-2,-4.9692582E-2,-7.469037E-3,-6.127946E-3,2.7341256E-2,-4.3144193E-2,-3.2876949E-3,4.2194612E-2,4.0158103E-3,3.291855E-2,-5.1017026E-3,-2.045649E-2,-4.5181192E-2,1.436096E-2,5.240183E-2,-4.8E-2,3.6055267E-2,2.0801302E-2,4.7402855E-2],"categories":[],"categories_nodes":[],"categories_segments":[],"categories_sizes":[],"default_left":[0,0,0,0,0,0,0,0,0,0,0,0,0,0,0,0,0,0,0,0,0,0,0,0,0,0,0,0,0,0,0,0,0,0,0,0,0,0,0,0,0,0,0,0,0,0,0,0,0,0,0,0,0,0,0,0,0,0,0,0,0,0,0,0,0,0,0,0,0,0,0,0,0,0,0,0,0,0,0,0,0,0,0,0,0,0,0,0,0,0,0,0,0,0,0,0,0,0,0,0,0,0,0,0,0,0,0,0,0,0,0,0,0,0,0,0,0,0,0,0,0,0,0,0,0,0,0,0,0,0,0,0,0],"id":0,"left_children":[1,3,5,7,9,11,13,15,17,19,21,23,25,27,29,-1,31,33,35,37,39,41,43,45,-1,47,-1,49,51,53,-1,55,57,59,61,63,65,67,69,71,73,-1,75,-1,-1,77,79,81,83,85,87,89,91,-1,-1,-1,-1,-1,-1,93,-1,95,-1,-1,-1,97,99,101,-1,103,-1,-1,-1,-1,-1,105,107,109,111,113,115,-1,-1,117,-1,119,121,123,-1,125,127,129,131,-1,-1,-1,-1,-1,-1,-1,-1,-1,-1,-1,-1,-1,-1,-1,-1,-1,-1,-1,-1,-1,-1,-1,-1,-1,-1,-1,-1,-1,-1,-1,-1,-1,-1,-1,-1,-1,-1,-1,-1],"loss_changes":[8.5422577E2,8.740149E1,1.016586E2,2.3251968E2,6.1695312E1,2.9220062E1,7.347396E1,1.3605164E1,1.2091385E1,2.1597717E1,2.6314468E1,2.748346E1,3.1419916E1,7.5535225E1,1.1792702E1,0E0,1.7570833E1,1.6198109E1,6.713913E0,1.1036377E1,3.8518276E1,2.2229149E1,2.0799253E1,1.4083191E1,0E0,1.6149908E1,0E0,2.6190392E1,1.0023059E2,9.282013E0,0E0,1.1573935E1,1.3591019E1,5.6537743E0,1.2861383E1,1.9085846E0,1.4393349E1,2.3060303E0,2.5401665E1,8.831326E0,4.016464E0,0E0,1.8526754E1,0E0,0E0,1.5302612E1,1.7376314E1,3.6495008E0,2.4086735E1,2.3873238E1,1.0429588E1,5.688765E1,1.2496712E1,0E0,0E0,0E0,0E0,0E0,0E0,4.70175E0,0E0,7.209935E0,0E0,0E0,0E0,1.2568512E0,2.3065887E1,1.7627697E1,0E0,1.5020264E1,0E0,0E0,0E0,0E0,0E0,1.9766312E0,9.256454E0,3.4372864E0,1.2756561E1,5.2198963E0,1.7769032E1,0E0,0E0,4.648321E0,0E0,1.9771652E1,1.5321945E1,1.2693405E1,0E0,2.9978699E1,3.4117603E0,2.3565248E1,2.097168E0,0E0,0E0,0E0,0E0,0E0,0E0,0E0,0E0,0E0,0E0,0E0,0E0,0E0,0E0,0E0,0E0,0E0,0E0,0E0,0E0,0E0,0E0,0E0,0E0,0E0,0E0,0E0,0E0,0E0,0E0,0E0,0E0,0E0,0E0,0E0,0E0,0E0,0E0,0E0,0E0],"parents":[2147483647,0,0,1,1,2,2,3,3,4,4,5,5,6,6,7,7,8,8,9,9,10,10,11,11,12,12,13,13,14,14,16,16,17,17,18,18,19,19,20,20,21,21,22,22,23,23,25,25,27,27,28,28,29,29,31,31,32,32,33,33,34,34,35,35,36,36,37,37,38,38,39,39,40,40,42,42,45,45,46,46,47,47,48,48,49,49,50,50,51,51,52,52,59,59,61,61,65,65,66,66,67,67,69,69,75,75,76,76,77,77,78,78,79,79,80,80,83,83,85,85,86,86,87,87,89,89,90,90,91,91,92,92],"right_children":[2,4,6,8,10,12,14,16,18,20,22,24,26,28,30,-1,32,34,36,38,40,42,44,46,-1,48,-1,50,52,54,-1,56,58,60,62,64,66,68,70,72,74,-1,76,-1,-1,78,80,82,84,86,88,90,92,-1,-1,-1,-1,-1,-1,94,-1,96,-1,-1,-1,98,100,102,-1,104,-1,-1,-1,-1,-1,106,108,110,112,114,116,-1,-1,118,-1,120,122,124,-1,126,128,130,132,-1,-1,-1,-1,-1,-1,-1,-1,-1,-1,-1,-1,-1,-1,-1,-1,-1,-1,-1,-1,-1,-1,-1,-1,-1,-1,-1,-1,-1,-1,-1,-1,-1,-1,-1,-1,-1,-1,-1,-1],"split_conditions":[-7.22817E-1,-3.3110923E-1,-8.203826E-1,2.6304194E-1,-1.2640665E0,-1.0744723E-1,6.254899E-1,-5.9466916E-1,8.7246823E-1,1.91075E0,1.0885022E0,2.563186E0,1.4581869E0,3.596819E-1,-5.6044215E-1,-5.724138E-2,-3.689557E-1,-7.5731033E-1,1.91075E0,-1.642941E0,1.286936E0,-9.78382E-1,-7.7694196E-1,1E0,2.7125776E-2,-7.6354694E-1,-5.4285713E-2,7.250541E-1,1.5496086E0,8.9006835E-1,-5.8125E-2,1E0,1E0,-1.1016916E0,1.3530806E0,-1.1723723E0,-1.697066E0,-9.3323934E-1,1.0981817E0,-8.166049E-1,1.7191259E0,-4.588235E-2,1.0304676E0,-5.3513512E-2,2.673066E-2,1E0,-1.2316669E0,3.025998E-1,4.1380686E-1,-4.0566325E-1,4.166078E-2,8.6175483E-1,9.0093136E-1,1.436096E-2,-4.588235E-2,-2.1641985E-2,3.8715795E-2,-4.9068023E-2,5.0792303E-3,2.0145268E0,5.4368995E-2,1E0,-4.588235E-2,2.3844443E-2,4.984324E-2,1E0,6.254899E-1,2.390112E0,5.1820163E-2,2.6883278E0,-2.4648415E-2,-5.385943E-3,4.7402855E-2,-5.385943E-3,-4.9565215E-2,2.4047059E-1,1E0,1.2587053E0,-8.7589943E-1,1E0,-6.312577E-1,7.904509E-3,4.265222E-2,-2.3569249E-1,-5.25E-2,-1.6581361E-1,-4.328239E-1,1E0,-1.807667E-2,-7.6354694E-1,1.7275655E-1,1E0,1.7978933E0,-8.503662E-3,3.7548583E-2,-1.1172992E-2,2.578681E-2,2.968668E-2,5.1804144E-2,-1.1917E-2,4.4556376E-2,-1.6033353E-2,5.1375564E-2,4.838206E-2,2.6191564E-3,4.9409732E-2,2.7638227E-2,-2.8367376E-2,2.673066E-2,-4.717748E-2,-2.931533E-2,-5.478261E-2,-1.8366078E-2,2.2360183E-2,-1.6033353E-2,-4.9692582E-2,-7.469037E-3,-6.127946E-3,2.7341256E-2,-4.3144193E-2,-3.2876949E-3,4.2194612E-2,4.0158103E-3,3.291855E-2,-5.1017026E-3,-2.045649E-2,-4.5181192E-2,1.436096E-2,5.240183E-2,-4.8E-2,3.6055267E-2,2.0801302E-2,4.7402855E-2],"split_indices":[2,1,5,5,2,1,0,5,5,5,0,4,1,2,2,0,5,4,5,2,0,5,2,17,0,0,0,4,5,0,0,15,17,2,0,4,2,5,5,4,1,0,5,0,0,14,4,1,2,1,1,1,2,0,0,0,0,0,0,0,0,9,0,0,0,13,0,1,0,1,0,0,0,0,0,5,18,4,4,7,0,0,0,2,0,5,0,10,0,0,5,13,5,0,0,0,0,0,0,0,0,0,0,0,0,0,0,0,0,0,0,0,0,0,0,0,0,0,0,0,0,0,0,0,0,0,0,0,0,0,0,0,0],"split_type":[0,0,0,0,0,0,0,0,0,0,0,0,0,0,0,0,0,0,0,0,0,0,0,0,0,0,0,0,0,0,0,0,0,0,0,0,0,0,0,0,0,0,0,0,0,0,0,0,0,0,0,0,0,0,0,0,0,0,0,0,0,0,0,0,0,0,0,0,0,0,0,0,0,0,0,0,0,0,0,0,0,0,0,0,0,0,0,0,0,0,0,0,0,0,0,0,0,0,0,0,0,0,0,0,0,0,0,0,0,0,0,0,0,0,0,0,0,0,0,0,0,0,0,0,0,0,0,0,0,0,0,0,0],"sum_hessian":[1.3545E3,5.291171E2,8.253829E2,1.9525153E2,3.3386557E2,3.1397504E2,5.1140784E2,5.4905296E1,1.4034624E2,2.831497E2,5.0715885E1,2.715438E2,4.2431263E1,4.7289917E2,3.8508656E1,2.075E1,3.4155296E1,3.7577904E1,1.02768326E2,2.540891E2,2.906059E1,3.895723E1,1.1758656E1,2.661558E2,5.387984E0,3.2931263E1,9.5E0,1.8369958E2,2.891996E2,7.5086555E0,3.1E1,9.517311E0,2.4637983E1,1.604328E1,2.1534622E1,5.189715E1,5.087118E1,2.030886E2,5.1000507E1,2.1181263E1,7.879328E0,3.25E0,3.570723E1,8.25E0,3.5086558E0,2.174832E2,4.8672607E1,1.2405295E1,2.0525967E1,1.2244043E2,6.1259163E1,2.5474236E2,3.445723E1,4.2586555E0,3.25E0,4.879328E0,4.637984E0,1.9629328E1,5.0086555E0,6.387984E0,9.655295E0,1.8284622E1,3.25E0,5.637984E0,4.6259163E1,2.6198574E1,2.4672607E1,1.704328E1,1.8604532E2,4.562118E1,5.379328E0,3.1293278E0,1.8051935E1,3.1293278E0,4.75E0,2.6069246E1,9.637983E0,1.628106E2,5.4672607E1,1.189664E1,3.6775967E1,4.7586555E0,7.6466393E0,1.3525968E1,7E0,8.24832E1,3.995723E1,5.6879837E1,4.379328E0,2.4358707E2,1.1155295E1,1.0517311E1,2.3939919E1,3.3793278E0,3.0086558E0,7.0086555E0,1.1275968E1,8.89664E0,1.7301935E1,1.4017311E1,1.0655295E1,4.129328E0,1.2913951E1,3.7733196E1,7.887984E0,1.3163951E1,1.2905295E1,6.129328E0,3.5086558E0,1.456726E2,1.7137983E1,1.05E1,4.4172607E1,7.7673116E0,4.129328E0,2.0879328E1,1.589664E1,6.2586555E0,7.2673116E0,1.2379328E1,7.010387E1,1.4163951E1,2.579328E1,4.774185E1,9.137983E0,1.8469043E2,5.889664E1,4.2586555E0,6.8966393E0,4E0,6.5173116E0,5.887984E0,1.8051935E1],"tree_param":{"num_deleted":"0","num_feature":"25","num_nodes":"133","size_leaf_vector":"1"}},{"base_weights":[2.114133E-5,9.6207255E-1,-6.169854E-1,1.292816E0,5.163265E-1,-4.34538E-1,-1.5207261E0,1.3175548E0,-1.4762969E-2,7.3449737E-1,-1.2491837E0,-5.315683E-1,7.55314E-1,-8.279119E-1,-1.6989808E0,1.1140485E0,1.4969392E0,-8.8672405E-1,9.764395E-1,-3.3105022E-1,-5.5132695E-2,4.993522E-2,-7.2084796E-1,-7.403867E-1,1.3013138E0,6.564694E-1,-1.39212E0,-1.454101E0,-5.7795804E-2,5.8233815E-1,1.3767829E0,1.5666887E0,-1.9481327E-2,-1.3343935E0,4.166616E-1,1.0921674E0,3.8841233E-1,5.0559694E-1,-4.6878763E-2,3.7028465E-1,-1.1076851E0,-6.057087E-1,-1.2415712E0,-5.3394105E-2,2.3423282E-2,4.65115E-2,8.5212994E-1,-8.57291E-3,3.815436E-2,-5.5128857E-2,-4.9559602E-1,2.6751575E-1,-1.7077179E0,-1.7725542E-1,9.2268395E-1,1.5451425E0,6.340277E-1,1.5899878E0,1.6988743E-2,-5.4342844E-2,-4.219649E-1,3.6673624E-2,-1.1132527E-2,1.4070342E0,8.130803E-1,7.7233064E-1,-4.854209E-2,-7.981954E-3,3.6673624E-2,-1.0056525E0,6.152493E-1,-5.216443E-1,-1.5618267E0,-7.2793007E-1,-2.3059805E-1,-8.7555057E-1,-5.6932703E-2,4.4038527E-2,-4.5119915E-3,1.4728138E-2,-4.6152234E-2,-1.39353955E-2,3.1301294E-2,-5.4130282E-2,-1.3630082E-2,-5.1243275E-2,2.8859988E-2,3.3771746E-2,-2.154848E-3,3.0547278E-2,4.83837E-2,3.0828562E-2,-1.7505594E-2,4.146116E-2,5.105632E-2,2.612278E-2,-4.6797216E-2,2.5461603E-2,4.576867E-2,2.8174257E-2,-2.4004841E-2,6.7603197E-3,4.3399133E-2,-4.5181286E-2,3.77377E-2,2.39416E-2,-1.4431463E-2,1.7184565E-3,-4.847802E-2,-5.448044E-2,-2.2100965E-2,6.1160675E-3,-2.3592941E-2,-1.231767E-2,2.622629E-2,-6.4267553E-3,-3.8408443E-2],"categories":[],"categories_nodes":[],"categories_segments":[],"categories_sizes":[],"default_left":[0,0,0,0,0,0,0,0,0,0,0,0,0,0,0,0,0,0,0,0,0,0,0,0,0,0,0,0,0,0,0,0,0,0,0,0,0,0,0,0,0,0,0,0,0,0,0,0,0,0,0,0,0,0,0,0,0,0,0,0,0,0,0,0,0,0,0,0,0,0,0,0,0,0,0,0,0,0,0,0,0,0,0,0,0,0,0,0,0,0,0,0,0,0,0,0,0,0,0,0,0,0,0,0,0,0,0,0,0,0,0,0,0,0,0,0,0],"id":1,"left_children":[1,3,5,7,9,11,13,15,-1,17,19,21,23,25,27,29,31,33,35,37,-1,39,41,43,45,47,49,51,-1,53,55,57,-1,59,61,63,65,67,-1,69,71,73,75,-1,-1,-1,77,-1,-1,-1,79,81,83,85,87,89,91,93,-1,-1,95,-1,-1,97,99,101,-1,-1,-1,103,105,107,109,111,113,115,-1,-1,-1,-1,-1,-1,-1,-1,-1,-1,-1,-1,-1,-1,-1,-1,-1,-1,-1,-1,-1,-1,-1,-1,-1,-1,-1,-1,-1,-1,-1,-1,-1,-1,-1,-1,-1,-1,-1,-1,-1],"loss_changes":[8.048906E2,7.744479E1,1.3555591E2,1.4049347E1,8.848755E1,7.9920654E1,1.5681152E1,9.269897E0,0E0,8.047994E1,1.3103687E1,7.019476E1,4.3711678E1,2.6261183E1,3.2778625E0,1.9353622E1,2.4421173E1,1.6240746E1,1.1627014E1,1.2260293E1,0E0,5.8805004E1,2.8083939E1,2.4530706E1,3.0096512E0,5.5903263E0,7.976288E0,2.5181717E1,0E0,1.2946997E1,1.1003845E1,2.6356506E0,0E0,8.048233E0,5.2996416E0,1.1810333E1,2.4878141E1,4.410041E0,0E0,4.2442E1,8.335644E0,1.7979034E1,1.902649E1,0E0,0E0,0E0,1.0116318E1,0E0,0E0,0E0,9.762807E0,5.105134E0,5.1739807E0,2.9790281E1,7.00869E0,1.1175537E0,9.898207E0,1.0845337E0,0E0,0E0,1.3501571E1,0E0,0E0,3.20076E0,1.7126236E1,9.420106E0,0E0,0E0,0E0,2.3565014E1,2.1617477E1,1.0553253E1,2.6196556E0,1.640915E1,1.9993443E1,1.5022507E1,0E0,0E0,0E0,0E0,0E0,0E0,0E0,0E0,0E0,0E0,0E0,0E0,0E0,0E0,0E0,0E0,0E0,0E0,0E0,0E0,0E0,0E0,0E0,0E0,0E0,0E0,0E0,0E0,0E0,0E0,0E0,0E0,0E0,0E0,0E0,0E0,0E0,0E0,0E0,0E0,0E0],"parents":[2147483647,0,0,1,1,2,2,3,3,4,4,5,5,6,6,7,7,9,9,10,10,11,11,12,12,13,13,14,14,15,15,16,16,17,17,18,18,19,19,21,21,22,22,23,23,24,24,25,25,26,26,27,27,29,29,30,30,31,31,33,33,34,34,35,35,36,36,37,37,39,39,40,40,41,41,42,42,46,46,50,50,51,51,52,52,53,53,54,54,55,55,56,56,57,57,60,60,63,63,64,64,65,65,69,69,70,70,71,71,72,72,73,73,74,74,75,75],"right_children":[2,4,6,8,10,12,14,16,-1,18,20,22,24,26,28,30,32,34,36,38,-1,40,42,44,46,48,50,52,-1,54,56,58,-1,60,62,64,66,68,-1,70,72,74,76,-1,-1,-1,78,-1,-1,-1,80,82,84,86,88,90,92,94,-1,-1,96,-1,-1,98,100,102,-1,-1,-1,104,106,108,110,112,114,116,-1,-1,-1,-1,-1,-1,-1,-1,-1,-1,-1,-1,-1,-1,-1,-1,-1,-1,-1,-1,-1,-1,-1,-1,-1,-1,-1,-1,-1,-1,-1,-1,-1,-1,-1,-1,-1,-1,-1,-1,-1],"split_conditions":[-7.22817E-1,-1.697066E0,7.026838E-1,2.8526697E0,1.5515145E0,1.8656074E0,-7.331765E-2,1.8822376E0,-1.4762969E-2,-4.3666974E-1,1E0,1.4318213E-1,-7.331765E-2,9.958637E-1,-7.6354694E-1,6.016121E-1,1.91075E0,1.2207915E0,1.91075E0,-6.172405E-1,-5.5132695E-2,4.932007E-1,-3.6667928E-1,3.01884E-2,1E0,8.818493E-1,-2.3569249E-1,5.761817E-1,-5.7795804E-2,1.0885022E0,1.3530806E0,1.7613889E0,-1.9481327E-2,-7.9781127E-1,-7.5731033E-1,-1.2640665E0,1E0,-6.492013E-1,-4.6878763E-2,-8.8809663E-1,-4.5219225E-1,1E0,-6.166257E-1,-5.3394105E-2,2.3423282E-2,4.65115E-2,1E0,-8.57291E-3,3.815436E-2,-5.5128857E-2,-8.8809663E-1,1E0,1.7034146E0,2.4047059E-1,2.8561327E-1,-1.1130778E0,1.775322E0,-7.8142E-3,1.6988743E-2,-5.4342844E-2,-6.623832E-1,3.6673624E-2,-1.1132527E-2,1.7275655E-1,1.0885022E0,6.254899E-1,-4.854209E-2,-7.981954E-3,3.6673624E-2,8.9057185E-2,1.3690377E0,1.1546468E0,1E0,3.596819E-1,1.5848254E0,4.679318E-1,-5.6932703E-2,4.4038527E-2,-4.5119915E-3,1.4728138E-2,-4.6152234E-2,-1.39353955E-2,3.1301294E-2,-5.4130282E-2,-1.3630082E-2,-5.1243275E-2,2.8859988E-2,3.3771746E-2,-2.154848E-3,3.0547278E-2,4.83837E-2,3.0828562E-2,-1.7505594E-2,4.146116E-2,5.105632E-2,2.612278E-2,-4.6797216E-2,2.5461603E-2,4.576867E-2,2.8174257E-2,-2.4004841E-2,6.7603197E-3,4.3399133E-2,-4.5181286E-2,3.77377E-2,2.39416E-2,-1.4431463E-2,1.7184565E-3,-4.847802E-2,-5.448044E-2,-2.2100965E-2,6.1160675E-3,-2.3592941E-2,-1.231767E-2,2.622629E-2,-6.4267553E-3,-3.8408443E-2],"split_indices":[2,2,6,6,0,5,2,0,0,5,20,2,2,6,0,5,5,0,5,5,0,0,0,0,9,6,2,2,0,0,0,6,0,5,4,2,8,6,0,5,2,14,6,0,0,0,7,0,0,0,5,15,4,5,5,4,5,5,0,0,5,0,0,5,0,0,0,0,0,2,5,0,24,2,4,2,0,0,0,0,0,0,0,0,0,0,0,0,0,0,0,0,0,0,0,0,0,0,0,0,0,0,0,0,0,0,0,0,0,0,0,0,0,0,0,0,0],"split_type":[0,0,0,0,0,0,0,0,0,0,0,0,0,0,0,0,0,0,0,0,0,0,0,0,0,0,0,0,0,0,0,0,0,0,0,0,0,0,0,0,0,0,0,0,0,0,0,0,0,0,0,0,0,0,0,0,0,0,0,0,0,0,0,0,0,0,0,0,0,0,0,0,0,0,0,0,0,0,0,0,0,0,0,0,0,0,0,0,0,0,0,0,0,0,0,0,0,0,0,0,0,0,0,0,0,0,0,0,0,0,0,0,0,0,0,0,0],"sum_hessian":[1.353966E3,5.2883484E2,8.2513116E2,3.0248825E2,2.2634657E2,6.877657E2,1.3736548E2,2.9861136E2,3.8768935E0,2.0197208E2,2.4374493E1,6.3642004E2,5.1345665E1,2.9265434E1,1.0810005E2,1.432776E2,1.5533376E2,2.5881123E1,1.7609096E2,1.0131893E1,1.42425995E1,1.5646513E2,4.799549E2,1.3635857E1,3.770981E1,8.015043E0,2.1250391E1,5.562646E1,5.2473587E1,4.8447716E1,9.482989E1,1.5070628E2,4.627484E0,1.9246725E1,6.634398E0,1.464176E2,2.9673351E1,6.3843074E0,3.7475863E0,1.2308408E2,3.338105E1,3.9481827E2,8.5136635E1,7.999641E0,5.6362157E0,2.26815E1,1.502831E1,3.3780556E0,4.6369877E0,1.34947405E1,7.7556515E0,7.1353154E0,4.8491146E1,1.5139076E1,3.330864E1,7.642617E1,1.840372E1,1.4670029E2,4.0059834E0,1.199187E1,7.254855E0,3.0068376E0,3.6275606E0,6.689965E1,7.951795E1,2.5423857E1,4.249494E0,3.37747E0,3.0068376E0,1.8132227E1,1.0495186E2,1.5512194E1,1.7868856E1,2.9708066E2,9.773759E1,5.615029E1,2.8986347E1,9.022089E0,6.0062203E0,4.2573123E0,3.498339E0,3.8778422E0,3.257473E0,4.4612347E1,3.878802E0,6.246342E0,8.892734E0,2.7551708E1,5.756932E0,1.0522188E1,6.590398E1,1.4025692E1,4.3780293E0,5.599128E1,9.0709015E1,3.5063589E0,3.7484963E0,1.314934E1,5.3750313E1,7.41422E1,5.3757515E0,1.477379E1,1.0650065E1,1.51236315E1,3.0085962E0,9.018573E1,1.4766127E1,1.0764805E1,4.747389E0,1.2742519E1,5.1263366E0,1.7403048E1,2.796776E2,8.4585594E1,1.3151991E1,2.1898201E1,3.425209E1],"tree_param":{"num_deleted":"0","num_feature":"25","num_nodes":"117","size_leaf_vector":"1"}},{"base_weights":[-1.2992576E-4,-1.2657706E0,7.5792146E-1,-1.5526819E0,7.2692406E-1,3.0891278E-1,1.3019745E0,-1.6805203E0,-8.8817215E-1,1.0021427E0,-1.1145935E0,4.4261968E-1,-1.2028663E0,7.790231E-1,1.5785644E0,-1.7173859E0,-3.0102167E-1,-4.5629478E-1,-5.5604167E-2,1.1384898E0,1.1056755E-1,-5.045151E-3,-4.8005637E-2,6.629719E-2,7.035108E-1,-5.5527393E-2,-3.663752E-1,2.2780256E-1,1.6090562E0,1.6982859E0,1.0273889E0,-1.6013074E0,-5.6670487E-2,-4.9074054E-2,3.3297494E-2,2.3746897E-1,-1.2302765E0,6.539779E-1,1.3590016E0,3.5900373E-2,-2.0458119E-2,-1.6181189E-1,8.0812335E-1,8.1957287E-1,-4.919751E-1,3.990792E-1,-5.0680958E-2,-5.2002057E-2,4.8557994E-1,1.5542405E-2,5.0786138E-2,1.4518789E0,5.479705E-2,-4.983728E-2,1.3504984E0,-1.6381259E0,-6.805594E-1,-3.2493812E-1,1.1210144E0,-1.6054611E0,1.4275345E-2,9.537857E-1,-1.1132912E-2,8.12824E-1,4.8207425E-2,3.954113E-2,-1.5159559E0,1.2301297E0,2.0680891E-1,4.2869934E-1,1.1143175E0,-5.3730015E-2,5.110422E-1,3.4395523E-2,-2.0063559E-2,6.502701E-1,-6.521086E-1,7.34721E-1,1.600612E0,1.6050229E0,6.4905375E-1,-3.2386787E-2,-5.1376052E-2,-4.993967E-2,3.2882463E-2,-3.380617E-2,1.3149176E-2,1.5254849E-2,4.2603098E-2,-8.353411E-3,-5.5478822E-2,3.9379902E-2,6.9906283E-3,4.0705696E-2,-1.1336303E-2,-2.6399048E-2,9.114577E-3,-5.412348E-2,-4.120817E-3,4.6866607E-2,1.02124885E-2,2.0258926E-2,-4.539611E-2,2.372002E-2,-1.9304948E-2,3.654697E-2,-5.130937E-4,-9.800879E-3,4.095308E-2,-2.0437295E-5,2.7915474E-2,-4.6887573E-2,5.2909628E-3,-8.949881E-3,4.789625E-2,5.2409098E-2,3.1137979E-2,5.1756483E-2,2.6408715E-2,4.9053505E-2,-8.814661E-3],"categories":[],"categories_nodes":[],"categories_segments":[],"categories_sizes":[],"default_left":[0,0,0,0,0,0,0,0,0,0,0,0,0,0,0,0,0,0,0,0,0,0,0,0,0,0,0,0,0,0,0,0,0,0,0,0,0,0,0,0,0,0,0,0,0,0,0,0,0,0,0,0,0,0,0,0,0,0,0,0,0,0,0,0,0,0,0,0,0,0,0,0,0,0,0,0,0,0,0,0,0,0,0,0,0,0,0,0,0,0,0,0,0,0,0,0,0,0,0,0,0,0,0,0,0,0,0,0,0,0,0,0,0,0,0,0,0,0,0,0,0],"id":2,"left_children":[1,3,5,7,9,11,13,15,17,19,21,23,25,27,29,31,33,35,-1,37,39,-1,-1,41,43,-1,45,47,49,51,53,55,-1,-1,-1,57,59,61,63,-1,-1,65,67,69,71,73,-1,-1,75,-1,-1,77,-1,-1,79,81,83,85,87,89,-1,91,-1,93,-1,95,97,99,101,103,105,-1,107,-1,-1,109,111,113,115,117,119,-1,-1,-1,-1,-1,-1,-1,-1,-1,-1,-1,-1,-1,-1,-1,-1,-1,-1,-1,-1,-1,-1,-1,-1,-1,-1,-1,-1,-1,-1,-1,-1,-1,-1,-1,-1,-1,-1,-1,-1],"loss_changes":[1.2998086E3,2.9127228E2,2.0657971E2,3.6219482E1,3.3833942E1,9.462781E1,5.4138428E1,1.836023E1,2.9898201E1,6.7651634E0,3.8058224E0,4.201455E1,1.997239E1,6.1123604E1,1.4712219E1,4.17334E0,2.2294333E1,2.8362808E1,0E0,4.352852E0,8.241468E0,0E0,0E0,2.9998764E1,3.5494003E1,0E0,1.877728E1,4.2260178E1,4.0121613E0,3.776184E0,4.3104733E1,6.414612E0,0E0,0E0,0E0,1.4479178E1,1.6684593E1,5.662137E0,3.1334724E0,0E0,0E0,3.709525E1,1.0321655E1,2.6123856E1,3.0889694E1,1.0451035E1,0E0,0E0,1.4137499E1,0E0,0E0,6.770447E0,0E0,0E0,6.5533905E0,6.997925E0,1.97467E1,1.1592137E1,1.3430767E0,6.1560593E0,0E0,3.2233105E0,0E0,8.45441E0,0E0,2.9238838E1,6.7470627E0,6.644497E0,1.5840237E1,3.9663773E1,1.5424103E1,0E0,1.02907E1,0E0,0E0,1.1755486E1,7.6362247E0,1.351494E1,3.1982574E0,1.1412277E0,1.2572098E1,0E0,0E0,0E0,0E0,0E0,0E0,0E0,0E0,0E0,0E0,0E0,0E0,0E0,0E0,0E0,0E0,0E0,0E0,0E0,0E0,0E0,0E0,0E0,0E0,0E0,0E0,0E0,0E0,0E0,0E0,0E0,0E0,0E0,0E0,0E0,0E0,0E0,0E0,0E0,0E0],"parents":[2147483647,0,0,1,1,2,2,3,3,4,4,5,5,6,6,7,7,8,8,9,9,10,10,11,11,12,12,13,13,14,14,15,15,16,16,17,17,19,19,20,20,23,23,24,24,26,26,27,27,28,28,29,29,30,30,31,31,35,35,36,36,37,37,38,38,41,41,42,42,43,43,44,44,45,45,48,48,51,51,54,54,55,55,56,56,57,57,58,58,59,59,61,61,63,63,65,65,66,66,67,67,68,68,69,69,70,70,72,72,75,75,76,76,77,77,78,78,79,79,80,80],"right_children":[2,4,6,8,10,12,14,16,18,20,22,24,26,28,30,32,34,36,-1,38,40,-1,-1,42,44,-1,46,48,50,52,54,56,-1,-1,-1,58,60,62,64,-1,-1,66,68,70,72,74,-1,-1,76,-1,-1,78,-1,-1,80,82,84,86,88,90,-1,92,-1,94,-1,96,98,100,102,104,106,-1,108,-1,-1,110,112,114,116,118,120,-1,-1,-1,-1,-1,-1,-1,-1,-1,-1,-1,-1,-1,-1,-1,-1,-1,-1,-1,-1,-1,-1,-1,-1,-1,-1,-1,-1,-1,-1,-1,-1,-1,-1,-1,-1,-1,-1,-1,-1],"split_conditions":[-1.736018E-1,1.5496086E0,1.2908013E0,-4.919503E-1,6.746069E-2,7.026838E-1,-1.0744723E-1,2.477539E0,-3.397336E-1,1E0,1.6850367E0,5.9899833E-2,4.6618402E-1,-6.492013E-1,1.1658957E0,-4.8181242E-1,1E0,-9.78382E-1,-5.5604167E-2,1.9333214E0,-9.934417E-1,-5.045151E-3,-4.8005637E-2,-2.5655523E-1,1.91075E0,-5.5527393E-2,1.4356335E0,-6.398118E-1,-7.752399E-1,1.0885022E0,-5.0261134E-1,-5.4952645E-1,-5.6670487E-2,-4.9074054E-2,3.3297494E-2,9.3258506E-1,1.1433244E0,1.9140288E-1,-7.331765E-2,3.5900373E-2,-2.0458119E-2,-5.188991E-1,1E0,3.01884E-2,1E0,1.0304676E0,-5.0680958E-2,-5.2002057E-2,1E0,1.5542405E-2,5.0786138E-2,-3.8859692E-1,5.479705E-2,-4.983728E-2,2.725605E0,-1.274426E-1,-6.8295944E-1,-4.328239E-1,1.64412E0,-1.1558166E0,1.4275345E-2,1.8204647E0,-1.1132912E-2,-7.22817E-1,4.8207425E-2,-1.8156753E-1,9.724528E-1,1.3519163E-2,8.374847E-2,9.627536E-1,1E0,-5.3730015E-2,1.6247763E-1,3.4395523E-2,-2.0063559E-2,7.821829E-1,1.617556E-1,1E0,1E0,-1.7511909E0,6.254899E-1,-3.2386787E-2,-5.1376052E-2,-4.993967E-2,3.2882463E-2,-3.380617E-2,1.3149176E-2,1.5254849E-2,4.2603098E-2,-8.353411E-3,-5.5478822E-2,3.9379902E-2,6.9906283E-3,4.0705696E-2,-1.1336303E-2,-2.6399048E-2,9.114577E-3,-5.412348E-2,-4.120817E-3,4.6866607E-2,1.02124885E-2,2.0258926E-2,-4.539611E-2,2.372002E-2,-1.9304948E-2,3.654697E-2,-5.130937E-4,-9.800879E-3,4.095308E-2,-2.0437295E-5,2.7915474E-2,-4.6887573E-2,5.2909628E-3,-8.949881E-3,4.789625E-2,5.2409098E-2,3.1137979E-2,5.1756483E-2,2.6408715E-2,4.9053505E-2,-8.814661E-3],"split_indices":[3,5,3,3,6,6,1,0,6,24,5,5,5,6,5,5,15,5,0,5,2,0,0,1,5,0,6,5,5,0,6,5,0,0,0,4,5,4,2,0,0,6,20,0,12,5,0,0,14,0,0,6,0,0,1,2,3,0,4,2,0,5,0,2,0,2,3,4,6,5,19,0,0,0,0,5,4,14,21,2,0,0,0,0,0,0,0,0,0,0,0,0,0,0,0,0,0,0,0,0,0,0,0,0,0,0,0,0,0,0,0,0,0,0,0,0,0,0,0,0,0],"split_type":[0,0,0,0,0,0,0,0,0,0,0,0,0,0,0,0,0,0,0,0,0,0,0,0,0,0,0,0,0,0,0,0,0,0,0,0,0,0,0,0,0,0,0,0,0,0,0,0,0,0,0,0,0,0,0,0,0,0,0,0,0,0,0,0,0,0,0,0,0,0,0,0,0,0,0,0,0,0,0,0,0,0,0,0,0,0,0,0,0,0,0,0,0,0,0,0,0,0,0,0,0,0,0,0,0,0,0,0,0,0,0,0,0,0,0,0,0,0,0,0,0],"sum_hessian":[1.352785E3,5.0648657E2,8.462984E2,4.4293317E2,6.355341E1,4.6450708E2,3.8179135E2,3.701875E2,7.274568E1,5.5686718E1,7.8666906E0,4.2741248E2,3.7094597E1,1.3339552E2,2.4839581E2,3.603136E2,9.8739E0,5.127696E1,2.1468725E1,4.806003E1,7.6266847E0,3.1241174E0,4.7425733E0,1.7550677E2,2.519057E2,2.021833E1,1.6876266E1,8.092687E1,5.2468655E1,2.023598E2,4.6036007E1,2.2110439E2,1.3920921E2,4.99199E0,4.88191E0,2.7405256E1,2.3871702E1,1.627221E1,3.1787823E1,3.0022151E0,4.6244698E0,1.3482913E2,4.067764E1,2.2990057E2,2.2005129E1,1.1133188E1,5.743079E0,8.736211E0,7.219066E1,4.255702E0,4.821295E1,7.349921E1,1.288606E2,4.494589E0,4.154142E1,2.1185373E2,9.250653E0,1.7132233E1,1.0273023E1,1.9616856E1,4.2548456E0,1.2643778E1,3.6284318E0,1.125985E1,2.0527973E1,1.1822117E2,1.6607971E1,2.3288137E1,1.73895E1,9.9888565E1,1.3001201E2,9.245502E0,1.2759625E1,6.505847E0,4.627341E0,6.343616E1,8.7545E0,1.3645158E1,5.985405E1,2.9535921E1,1.2005498E1,2.6727486E1,1.8512624E2,5.9937167E0,3.2569363E0,8.122043E0,9.01019E0,4.2563586E0,6.0166645E0,3.3774877E0,1.6239368E1,7.892698E0,4.7510805E0,7.632848E0,3.6270015E0,2.5872532E1,9.234863E1,1.3481373E1,3.1265981E0,1.640792E1,6.8802176E0,1.4144325E1,3.2451744E0,7.487407E1,2.50145E1,1.1900529E2,1.1006714E1,6.7530837E0,6.006542E0,1.9391466E1,4.4044697E1,3.7477658E0,5.0067344E0,6.503435E0,7.1417227E0,4.5828835E1,1.4025214E1,2.4150236E1,5.385685E0,5.509481E0,6.4960165E0],"tree_param":{"num_deleted":"0","num_feature":"25","num_nodes":"121","size_leaf_vector":"1"}},{"base_weights":[-1.5569782E-4,-1.2307147E0,7.3633504E-1,-1.5099813E0,7.0723045E-1,2.9960966E-1,1.2662218E0,-1.6344588E0,-8.6359775E-1,8.800004E-1,-4.5878347E-2,-1.1176358E-1,5.914034E-1,7.565284E-1,1.5361905E0,-2.778221E-1,-1.6698833E0,-2.5349578E-1,-1.4357438E0,5.175125E-2,6.574749E-1,-5.688102E-1,1.6258205E-1,7.082574E-1,-5.939662E-1,-1.2500927E0,9.3418366E-1,1.6527975E0,9.998199E-1,-4.8633825E-2,3.249302E-2,-1.7307752E0,-1.3666433E0,-7.9377896E-1,9.657621E-1,-4.3442384E-3,-1.6748984E0,-5.8776826E-1,9.206428E-1,3.7595043E-1,-8.9670545E-1,-5.188557E-2,2.9266354E-1,7.863335E-1,-6.6983676E-1,-5.29021E-2,3.7331605E-1,-4.994425E-2,-3.5724042E-3,2.395096E-1,1.05977E0,1.4124676E0,5.334345E-2,-1.2451304E-2,1.1277642E0,-1.6014887E0,-5.6197025E-2,-1.5671754E0,-1.5776826E-1,-1.2233324E0,3.0534083E-1,1.1133063E-2,3.8505275E-2,-5.492696E-2,-2.0229334E-2,-4.869176E-2,3.0317608E-2,2.5531068E-1,1.2722332E0,8.149263E-1,-2.1490855E-2,-3.3404922E-1,-1.4580177E0,-1.1806163E-1,7.004564E-1,3.317534E-1,1.1410753E0,-4.8351303E-2,-4.5480527E-2,9.218758E-1,-1.9664241E-2,-1.3837142E-1,3.737076E-2,6.267817E-1,1.2529926E0,1.0405613E-2,1.4762188E0,4.85775E-2,7.4121106E-1,-4.98146E-2,-3.2197332E-3,-5.1812794E-2,-2.572839E-2,3.170201E-2,-4.6468172E-2,-1.2845895E-2,-5.200822E-2,2.6791148E-2,-9.999577E-3,-1.2404611E-2,2.6765754E-2,2.5104566E-2,4.847185E-2,4.4061188E-3,4.636891E-2,-2.4246454E-2,8.457398E-3,-4.8457842E-2,-8.310718E-3,-5.1561538E-2,7.1624606E-3,7.2540026E-3,3.7982017E-2,2.044524E-2,-2.0575104E-2,-1.4266786E-2,3.5812657E-2,2.4560455E-2,-2.0988876E-2,9.459209E-3,4.110124E-2,1.6953966E-2,-4.9144473E-2,-5.195127E-2,3.8821816E-2,4.5047194E-2,2.6291233E-2,5.0648626E-2,3.7743248E-2,3.4596168E-2,2.7960725E-3],"categories":[],"categories_nodes":[],"categories_segments":[],"categories_sizes":[],"default_left":[0,0,0,0,0,0,0,0,0,0,0,0,0,0,0,0,0,0,0,0,0,0,0,0,0,0,0,0,0,0,0,0,0,0,0,0,0,0,0,0,0,0,0,0,0,0,0,0,0,0,0,0,0,0,0,0,0,0,0,0,0,0,0,0,0,0,0,0,0,0,0,0,0,0,0,0,0,0,0,0,0,0,0,0,0,0,0,0,0,0,0,0,0,0,0,0,0,0,0,0,0,0,0,0,0,0,0,0,0,0,0,0,0,0,0,0,0,0,0,0,0,0,0,0,0,0,0,0,0,0,0],"id":3,"left_children":[1,3,5,7,9,11,13,15,17,19,-1,21,23,25,27,29,31,33,35,-1,37,39,41,43,45,47,49,51,53,-1,-1,55,57,59,61,-1,63,65,67,69,71,-1,73,75,77,-1,79,-1,-1,81,83,85,-1,-1,87,89,-1,91,93,95,97,-1,-1,-1,-1,-1,-1,99,101,103,-1,105,107,109,111,113,115,-1,117,119,-1,121,-1,123,125,-1,127,-1,129,-1,-1,-1,-1,-1,-1,-1,-1,-1,-1,-1,-1,-1,-1,-1,-1,-1,-1,-1,-1,-1,-1,-1,-1,-1,-1,-1,-1,-1,-1,-1,-1,-1,-1,-1,-1,-1,-1,-1,-1,-1,-1],"loss_changes":[1.2258643E3,2.751527E2,1.9543799E2,3.4229797E1,2.6256542E1,5.590377E1,5.140155E1,1.7332764E1,2.5344875E1,1.0238743E1,0E0,2.4402172E1,3.8138252E1,4.9023758E1,1.3905945E1,2.1176527E1,4.294861E0,2.5046066E1,1.1425377E1,0E0,1.6759249E1,2.2934128E1,3.0516438E1,2.7245087E1,2.8913303E1,5.123667E0,1.0555145E1,3.5963745E0,8.967777E0,0E0,0E0,2.4632568E0,1.5526955E1,1.2690817E1,1.7473555E0,0E0,3.7277527E0,1.6937906E1,9.3233795E0,9.933313E0,1.6708473E1,0E0,1.9334373E1,3.7592453E1,8.073934E0,0E0,8.78519E0,0E0,0E0,7.876065E0,7.968796E0,4.5401917E0,0E0,0E0,7.031616E0,1.4137299E1,0E0,4.839203E0,1.915811E1,6.9494896E0,3.3495939E0,0E0,0E0,0E0,0E0,0E0,0E0,6.975765E0,2.6463203E0,6.7909927E0,0E0,8.548222E0,4.558819E0,3.3604877E1,1.4693844E1,3.770222E1,1.1796341E1,0E0,5.864189E0,2.251193E0,0E0,1.7416468E1,0E0,5.6201057E1,5.363716E0,0E0,1.1074829E0,0E0,6.859953E0,0E0,0E0,0E0,0E0,0E0,0E0,0E0,0E0,0E0,0E0,0E0,0E0,0E0,0E0,0E0,0E0,0E0,0E0,0E0,0E0,0E0,0E0,0E0,0E0,0E0,0E0,0E0,0E0,0E0,0E0,0E0,0E0,0E0,0E0,0E0,0E0,0E0,0E0,0E0,0E0,0E0,0E0],"parents":[2147483647,0,0,1,1,2,2,3,3,4,4,5,5,6,6,7,7,8,8,9,9,11,11,12,12,13,13,14,14,15,15,16,16,17,17,18,18,20,20,21,21,22,22,23,23,24,24,25,25,26,26,27,27,28,28,31,31,32,32,33,33,34,34,36,36,37,37,38,38,39,39,40,40,42,42,43,43,44,44,46,46,49,49,50,50,51,51,54,54,55,55,57,57,58,58,59,59,60,60,67,67,68,68,69,69,71,71,72,72,73,73,74,74,75,75,76,76,78,78,79,79,81,81,83,83,84,84,86,86,88,88],"right_children":[2,4,6,8,10,12,14,16,18,20,-1,22,24,26,28,30,32,34,36,-1,38,40,42,44,46,48,50,52,54,-1,-1,56,58,60,62,-1,64,66,68,70,72,-1,74,76,78,-1,80,-1,-1,82,84,86,-1,-1,88,90,-1,92,94,96,98,-1,-1,-1,-1,-1,-1,100,102,104,-1,106,108,110,112,114,116,-1,118,120,-1,122,-1,124,126,-1,128,-1,130,-1,-1,-1,-1,-1,-1,-1,-1,-1,-1,-1,-1,-1,-1,-1,-1,-1,-1,-1,-1,-1,-1,-1,-1,-1,-1,-1,-1,-1,-1,-1,-1,-1,-1,-1,-1,-1,-1,-1,-1,-1,-1],"split_conditions":[-1.736018E-1,1.5496086E0,1.2908013E0,-4.919503E-1,-4.4294024E-1,5.9899833E-2,-1.0744723E-1,-1.7511909E0,-9.78382E-1,-8.3106685E-1,-4.5878347E-2,2.7208608E-1,1.91075E0,-7.9781127E-1,1.1658957E0,1E0,-8.102988E-1,9.3258506E-1,-1.1558166E0,5.175125E-2,-1.274426E-1,-1.024136E0,-1.642941E0,2.315558E0,1E0,1E0,1.4818105E0,1.0885022E0,1.3690377E0,-4.8633825E-2,3.249302E-2,-7.3009723E-1,1.2290579E0,1E0,1E0,-4.3442384E-3,1.1433244E0,-2.372715E-1,1.9333214E0,1E0,1E0,-5.188557E-2,-8.655253E-1,3.01884E-2,1E0,-5.29021E-2,1E0,-4.994425E-2,-3.5724042E-3,9.5621294E-1,8.273255E-1,-9.78382E-1,5.334345E-2,-1.2451304E-2,1.1599709E0,-7.752399E-1,-5.6197025E-2,1E0,-6.849545E-1,-5.794266E-1,1E0,1.1133063E-2,3.8505275E-2,-5.492696E-2,-2.0229334E-2,-4.869176E-2,3.0317608E-2,1E0,1E0,8.1076995E-2,-2.1490855E-2,7.250541E-1,1E0,-1.274426E-1,-1.6824543E-1,9.627536E-1,1.953279E-1,-4.8351303E-2,-9.35194E-1,-1.6128125E-2,-1.9664241E-2,5.564694E-1,3.737076E-2,-6.145671E-1,-1.5346911E0,1.0405613E-2,-4.328239E-1,4.85775E-2,1.286936E0,-4.98146E-2,-3.2197332E-3,-5.1812794E-2,-2.572839E-2,3.170201E-2,-4.6468172E-2,-1.2845895E-2,-5.200822E-2,2.6791148E-2,-9.999577E-3,-1.2404611E-2,2.6765754E-2,2.5104566E-2,4.847185E-2,4.4061188E-3,4.636891E-2,-2.4246454E-2,8.457398E-3,-4.8457842E-2,-8.310718E-3,-5.1561538E-2,7.1624606E-3,7.2540026E-3,3.7982017E-2,2.044524E-2,-2.0575104E-2,-1.4266786E-2,3.5812657E-2,2.4560455E-2,-2.0988876E-2,9.459209E-3,4.110124E-2,1.6953966E-2,-4.9144473E-2,-5.195127E-2,3.8821816E-2,4.5047194E-2,2.6291233E-2,5.0648626E-2,3.7743248E-2,3.4596168E-2,2.7960725E-3],"split_indices":[3,5,3,3,1,5,1,2,5,2,0,3,5,5,5,15,3,4,2,0,2,4,2,1,12,23,3,0,5,0,0,5,4,17,13,0,5,3,5,13,9,0,5,0,7,0,9,0,0,0,5,5,0,0,1,5,0,17,5,4,9,0,0,0,0,0,0,12,21,3,0,4,23,2,0,5,5,0,4,4,0,5,0,2,2,0,0,0,0,0,0,0,0,0,0,0,0,0,0,0,0,0,0,0,0,0,0,0,0,0,0,0,0,0,0,0,0,0,0,0,0,0,0,0,0,0,0,0,0,0,0],"split_type":[0,0,0,0,0,0,0,0,0,0,0,0,0,0,0,0,0,0,0,0,0,0,0,0,0,0,0,0,0,0,0,0,0,0,0,0,0,0,0,0,0,0,0,0,0,0,0,0,0,0,0,0,0,0,0,0,0,0,0,0,0,0,0,0,0,0,0,0,0,0,0,0,0,0,0,0,0,0,0,0,0,0,0,0,0,0,0,0,0,0,0,0,0,0,0,0,0,0,0,0,0,0,0,0,0,0,0,0,0,0,0,0,0,0,0,0,0,0,0,0,0,0,0,0,0,0,0,0,0,0,0],"sum_hessian":[1.3506102E3,5.0543597E2,8.4517426E2,4.4196735E2,6.3468636E1,4.6417386E2,3.810004E2,3.693173E2,7.265005E1,5.948032E1,3.9883168E0,1.9287462E2,2.7129926E2,1.3324323E2,2.4775716E2,9.623222E0,3.596941E2,3.5857178E1,3.679287E1,1.0990763E1,4.848956E1,7.194476E1,1.20929855E2,2.4732082E2,2.3978434E1,1.0346184E1,1.2289704E2,2.018036E2,4.595355E1,4.746736E0,4.876486E0,2.956238E2,6.407026E1,2.5088717E1,1.0768462E1,6.001702E0,3.0791168E1,8.244633E0,4.0244923E1,1.849855E1,5.3446213E1,6.9881406E0,1.1394172E2,2.3446649E2,1.28543215E1,1.04823265E1,1.3496106E1,7.2249885E0,3.121195E0,1.92613E1,1.0363574E2,7.336941E1,1.284342E2,3.624818E0,4.232873E1,1.6139438E2,1.3422945E2,5.470005E1,9.370209E0,1.7957592E1,7.131124E0,4.505112E0,6.26335E0,2.592016E1,4.871007E0,4.9942746E0,3.2503588E0,1.45110655E1,2.5733858E1,1.33766985E1,5.1218524E0,2.7487759E1,2.5958454E1,5.7120735E1,5.6820984E1,1.03619545E2,1.3084694E2,4.4938E0,8.360521E0,8.870308E0,4.6257987E0,1.4629526E1,4.6317735E0,3.3287148E1,7.0348595E1,4.5051756E0,6.886423E1,1.7231134E1,2.5097597E1,1.551566E2,6.2377734E0,4.3469147E1,1.1230902E1,5.1311116E0,4.239097E0,7.738391E0,1.0219202E1,3.5063071E0,3.6248171E0,7.2492695E0,7.261796E0,1.2863844E1,1.2870014E1,7.6153054E0,5.761393E0,1.5355232E1,1.2132525E1,2.2583813E1,3.3746414E0,9.716313E0,4.740442E1,3.2165413E1,2.465557E1,7.736038E1,2.6259163E1,3.8759203E0,1.2697102E2,3.4936786E0,4.8668427E0,4.492922E0,4.377386E0,1.0382552E1,4.2469745E0,6.9890914E0,2.6298056E1,4.0578457E1,2.9770136E1,3.1498114E1,3.7366116E1,1.486624E1,1.0231357E1],"tree_param":{"num_deleted":"0","num_feature":"25","num_nodes":"131","size_leaf_vector":"1"}},{"base_weights":[-2.4948243E-4,-1.1980722E0,7.1571755E-1,-1.4702979E0,6.886021E-1,2.9062217E-1,1.2324492E0,-1.5917866E0,-8.4043306E-1,9.525593E-1,-1.0757058E0,4.1907418E-1,-1.1634504E0,7.3513675E-1,1.4963589E0,-1.6268214E0,-2.83819E-1,-4.2420837E-1,-5.321499E-2,1.085175E0,8.86949E-2,-4.769719E-3,-4.642126E-2,6.526019E-2,6.6461736E-1,-5.3658985E-2,-3.5737342E-1,2.0349285E-1,1.5370612E0,1.610283E0,9.7331464E-1,-1.516071E0,-5.3720906E-2,-4.676501E-2,3.185138E-2,2.3411955E-1,-1.1604162E0,6.264039E-1,1.2943854E0,2.8854586E-2,-1.8484006E-2,-1.5338577E-1,7.76875E-1,7.740739E-1,-4.635372E-1,3.779522E-1,-4.883581E-2,-4.985185E-2,4.4807866E-1,1.5250695E-2,4.847928E-2,1.3749295E0,5.199893E-2,-4.8924576E-2,1.2880049E0,-1.5521425E0,-6.2040055E-1,-3.145048E-1,7.7017397E-1,-1.5227702E0,1.4297525E-2,8.686743E-1,-8.535359E-3,7.705588E-1,4.597838E-2,4.0657546E-2,-1.4622146E0,9.3449837E-1,-1.5832102E-2,4.0600148E-1,1.0523666E0,-5.101743E-2,4.8988685E-1,3.312871E-2,-1.9687232E-2,6.0690534E-1,-6.4596635E-1,6.8149936E-1,1.5195222E0,1.5310869E0,6.197433E-1,-3.0454937E-2,-4.8717894E-2,-4.751862E-2,3.302199E-2,-3.312255E-2,2.4490543E-2,-1.9945087E-2,4.6626966E-2,-8.060021E-3,-5.2619487E-2,9.04467E-3,4.142857E-2,3.880088E-2,-1.10450275E-2,-2.5443584E-2,8.870334E-3,-5.2233636E-2,-3.9781444E-3,-1.7758625E-3,3.3205148E-2,2.2422416E-2,-1.816461E-2,3.4606554E-2,-1.3171303E-3,-9.499578E-3,3.943499E-2,-4.0984657E-4,2.6250843E-2,2.8300947E-3,-4.5943912E-2,-9.649404E-3,4.573119E-2,4.988761E-2,2.9174829E-2,4.9470786E-2,2.484149E-2,4.712115E-2,-8.558533E-3],"categories":[],"categories_nodes":[],"categories_segments":[],"categories_sizes":[],"default_left":[0,0,0,0,0,0,0,0,0,0,0,0,0,0,0,0,0,0,0,0,0,0,0,0,0,0,0,0,0,0,0,0,0,0,0,0,0,0,0,0,0,0,0,0,0,0,0,0,0,0,0,0,0,0,0,0,0,0,0,0,0,0,0,0,0,0,0,0,0,0,0,0,0,0,0,0,0,0,0,0,0,0,0,0,0,0,0,0,0,0,0,0,0,0,0,0,0,0,0,0,0,0,0,0,0,0,0,0,0,0,0,0,0,0,0,0,0,0,0],"id":4,"left_children":[1,3,5,7,9,11,13,15,17,19,21,23,25,27,29,31,33,35,-1,37,39,-1,-1,41,43,-1,45,47,49,51,53,55,-1,-1,-1,57,59,61,63,-1,-1,65,67,69,71,73,-1,-1,75,-1,-1,77,-1,-1,79,81,83,85,87,89,-1,91,-1,93,-1,95,97,99,-1,101,103,-1,105,-1,-1,107,109,111,113,115,117,-1,-1,-1,-1,-1,-1,-1,-1,-1,-1,-1,-1,-1,-1,-1,-1,-1,-1,-1,-1,-1,-1,-1,-1,-1,-1,-1,-1,-1,-1,-1,-1,-1,-1,-1,-1,-1,-1],"loss_changes":[1.1572837E3,2.602984E2,1.8516757E2,3.2446472E1,3.0987247E1,8.7283264E1,4.8891968E1,1.6447205E1,2.7804966E1,6.3760376E0,3.5774136E0,3.711502E1,1.8502613E1,5.6826073E1,1.3203369E1,3.8035889E0,2.0247086E1,2.5547577E1,0E0,3.8814697E0,5.889829E0,0E0,0E0,2.755526E1,3.1523758E1,0E0,1.7282982E1,3.8037304E1,3.50354E0,3.4656372E0,4.050428E1,6.1719666E0,0E0,0E0,0E0,8.583839E0,1.5428852E1,4.05389E0,2.8920174E0,0E0,0E0,3.45292E1,9.0497265E0,2.3176529E1,2.7896763E1,9.823125E0,0E0,0E0,1.3086555E1,0E0,0E0,6.402359E0,0E0,0E0,5.933632E0,6.509094E0,1.8684725E1,1.4051676E1,1.7501032E1,5.4826813E0,0E0,3.614334E0,0E0,7.7477994E0,0E0,2.7262049E1,6.27771E0,6.485016E0,0E0,3.5276665E1,1.4536819E1,0E0,9.551235E0,0E0,0E0,1.071246E1,6.5331745E0,1.28457155E1,3.1340942E0,1.1541595E0,1.1620218E1,0E0,0E0,0E0,0E0,0E0,0E0,0E0,0E0,0E0,0E0,0E0,0E0,0E0,0E0,0E0,0E0,0E0,0E0,0E0,0E0,0E0,0E0,0E0,0E0,0E0,0E0,0E0,0E0,0E0,0E0,0E0,0E0,0E0,0E0,0E0,0E0,0E0,0E0],"parents":[2147483647,0,0,1,1,2,2,3,3,4,4,5,5,6,6,7,7,8,8,9,9,10,10,11,11,12,12,13,13,14,14,15,15,16,16,17,17,19,19,20,20,23,23,24,24,26,26,27,27,28,28,29,29,30,30,31,31,35,35,36,36,37,37,38,38,41,41,42,42,43,43,44,44,45,45,48,48,51,51,54,54,55,55,56,56,57,57,58,58,59,59,61,61,63,63,65,65,66,66,67,67,69,69,70,70,72,72,75,75,76,76,77,77,78,78,79,79,80,80],"right_children":[2,4,6,8,10,12,14,16,18,20,22,24,26,28,30,32,34,36,-1,38,40,-1,-1,42,44,-1,46,48,50,52,54,56,-1,-1,-1,58,60,62,64,-1,-1,66,68,70,72,74,-1,-1,76,-1,-1,78,-1,-1,80,82,84,86,88,90,-1,92,-1,94,-1,96,98,100,-1,102,104,-1,106,-1,-1,108,110,112,114,116,118,-1,-1,-1,-1,-1,-1,-1,-1,-1,-1,-1,-1,-1,-1,-1,-1,-1,-1,-1,-1,-1,-1,-1,-1,-1,-1,-1,-1,-1,-1,-1,-1,-1,-1,-1,-1,-1,-1],"split_conditions":[-1.736018E-1,1.5496086E0,1.2908013E0,-4.919503E-1,6.746069E-2,7.026838E-1,-1.0744723E-1,2.477539E0,-3.397336E-1,1E0,1.6850367E0,5.9899833E-2,4.6618402E-1,-6.492013E-1,1.1658957E0,-4.8181242E-1,1E0,-9.78382E-1,-5.321499E-2,1.9333214E0,-6.145671E-1,-4.769719E-3,-4.642126E-2,-2.5655523E-1,1.91075E0,-5.3658985E-2,1.4356335E0,-6.398118E-1,-7.752399E-1,1.0885022E0,-5.0261134E-1,-5.4952645E-1,-5.3720906E-2,-4.676501E-2,3.185138E-2,-4.328239E-1,1.1433244E0,1E0,-7.331765E-2,2.8854586E-2,-1.8484006E-2,-5.188991E-1,-2.7867034E-1,3.01884E-2,1E0,1.0304676E0,-4.883581E-2,-4.985185E-2,1E0,1.5250695E-2,4.847928E-2,-3.8859692E-1,5.199893E-2,-4.8924576E-2,2.725605E0,-1.274426E-1,-6.8295944E-1,1E0,1E0,-1.1558166E0,1.4297525E-2,9.0093136E-1,-8.535359E-3,-7.22817E-1,4.597838E-2,-1.8156753E-1,9.724528E-1,-1.697066E0,-1.5832102E-2,9.627536E-1,1E0,-5.101743E-2,1.6247763E-1,3.312871E-2,-1.9687232E-2,7.821829E-1,4.6618402E-1,1E0,1E0,-1.7511909E0,6.254899E-1,-3.0454937E-2,-4.8717894E-2,-4.751862E-2,3.302199E-2,-3.312255E-2,2.4490543E-2,-1.9945087E-2,4.6626966E-2,-8.060021E-3,-5.2619487E-2,9.04467E-3,4.142857E-2,3.880088E-2,-1.10450275E-2,-2.5443584E-2,8.870334E-3,-5.2233636E-2,-3.9781444E-3,-1.7758625E-3,3.3205148E-2,2.2422416E-2,-1.816461E-2,3.4606554E-2,-1.3171303E-3,-9.499578E-3,3.943499E-2,-4.0984657E-4,2.6250843E-2,2.8300947E-3,-4.5943912E-2,-9.649404E-3,4.573119E-2,4.988761E-2,2.9174829E-2,4.9470786E-2,2.484149E-2,4.712115E-2,-8.558533E-3],"split_indices":[3,5,3,3,6,6,1,0,6,24,5,5,5,6,5,5,15,5,0,5,2,0,0,1,5,0,6,5,5,0,6,5,0,0,0,0,5,11,2,0,0,6,5,0,12,5,0,0,14,0,0,6,0,0,1,2,3,14,13,2,0,2,0,2,0,2,3,2,0,5,19,0,0,0,0,5,5,14,21,2,0,0,0,0,0,0,0,0,0,0,0,0,0,0,0,0,0,0,0,0,0,0,0,0,0,0,0,0,0,0,0,0,0,0,0,0,0,0,0],"split_type":[0,0,0,0,0,0,0,0,0,0,0,0,0,0,0,0,0,0,0,0,0,0,0,0,0,0,0,0,0,0,0,0,0,0,0,0,0,0,0,0,0,0,0,0,0,0,0,0,0,0,0,0,0,0,0,0,0,0,0,0,0,0,0,0,0,0,0,0,0,0,0,0,0,0,0,0,0,0,0,0,0,0,0,0,0,0,0,0,0,0,0,0,0,0,0,0,0,0,0,0,0,0,0,0,0,0,0,0,0,0,0,0,0,0,0,0,0,0,0],"sum_hessian":[1.3474423E3,5.0383908E2,8.4360315E2,4.4050055E2,6.3338547E1,4.6369852E2,3.799046E2,3.679944E2,7.250615E1,5.5495922E1,7.842622E0,4.2671457E2,3.6983944E1,1.3302234E2,2.4688228E2,3.5815717E2,9.837227E0,5.1151146E1,2.1355003E1,4.78882E1,7.607724E0,3.1185782E0,4.724044E0,1.7533394E2,2.5138063E2,2.0142645E1,1.6841301E1,8.074523E1,5.2277103E1,2.0101958E2,4.58627E1,2.1983784E2,1.3831932E2,4.9695735E0,4.867653E0,2.736392E1,2.3787226E1,1.6249435E1,3.1638763E1,3.2352984E0,4.372426E0,1.34724E2,4.0609932E1,2.2943417E2,2.1946451E1,1.1112299E1,5.729002E0,8.688944E0,7.205628E1,4.2548113E0,4.8022293E1,7.318255E1,1.2783703E2,4.4937325E0,4.136897E1,2.1062247E2,9.215372E0,1.3727658E1,1.3636261E1,1.9533272E1,4.253955E0,1.2872258E1,3.3771775E0,1.1214429E1,2.0424334E1,1.1817294E2,1.6551058E1,3.648545E1,4.124481E0,9.9841644E1,1.2959254E2,9.211328E0,1.2735124E1,6.4879084E0,4.62439E0,6.3310524E1,8.745764E0,1.3612696E1,5.9569855E1,2.9387892E1,1.1981077E1,2.662272E1,1.8399976E2,5.959006E0,3.256366E0,8.097523E0,5.6301355E0,4.8717947E0,8.764466E0,3.3772094E0,1.6156061E1,6.8626165E0,6.009642E0,7.5927167E0,3.6217124E0,2.5829224E1,9.234372E1,1.3425374E1,3.1256838E0,5.489588E0,3.0995863E1,7.484122E1,2.5000425E1,1.1859412E2,1.0998424E1,6.7495275E0,5.985596E0,1.9387482E1,4.3923042E1,5.250037E0,3.4957263E0,6.4977684E0,7.1149273E0,4.5581245E1,1.3988611E1,2.401383E1,5.3740616E0,5.483614E0,6.497463E0],"tree_param":{"num_deleted":"0","num_feature":"25","num_nodes":"119","size_leaf_vector":"1"}},{"base_weights":[-3.028759E-4,-1.1673357E0,6.961223E-1,-1.433083E0,6.706806E-1,2.820134E-1,1.2007332E0,-1.5517935E0,-8.1870365E-1,9.283967E-1,-1.0513511E0,4.069089E-1,-1.1344659E0,7.1465737E-1,1.459325E0,-2.6386312E-1,-1.5855677E0,-4.1288936E-1,-5.1932856E-2,1.0577047E0,8.7319024E-2,-4.5788515E-2,-4.0683243E-3,6.300986E-2,6.4581513E-1,-5.234062E-2,-3.4926975E-1,1.968437E-1,1.4972495E0,1.5707616E0,9.485669E-1,4.4464695E-1,-4.294385E-2,-1.644566E0,-1.2926393E0,2.2797514E-1,-1.1309499E0,6.104755E-1,1.2621917E0,-1.880517E-2,2.9085847E-2,-1.4941074E-1,7.5463694E-1,7.522033E-1,-4.5163292E-1,3.682067E-1,-4.7707994E-2,-4.871406E-2,4.3486196E-1,1.4877583E-2,4.7230314E-2,1.670976E0,1.3340446E0,-4.7756236E-2,1.2564192E0,-6.6720517E-3,2.9599E-2,-1.5196306E0,-5.3475663E-2,-1.4895078E0,-1.14605166E-1,-2.9874668E-1,1.054192E0,-1.4855014E0,1.3951075E-2,9.0386736E-1,-1.1546718E-2,7.513415E-1,4.4845093E-2,3.930005E-2,-1.426364E0,1.1642995E0,1.7356464E-1,1.0782942E0,4.63312E-1,3.8784146E-1,-1.2698793E0,3.2330498E-2,-1.9204868E-2,-5.276517E-1,6.1607885E-1,1.2964377E-2,5.1135708E-2,1.26669435E-2,4.1732702E-2,1.4937413E0,6.052031E-1,-4.732906E-2,-1.9226279E-3,-4.936479E-2,-2.4066249E-2,3.184733E-2,-4.4294745E-2,1.1741823E-2,-3.195292E-2,1.3974226E-2,4.035899E-2,-7.87404E-3,-5.135736E-2,3.7585735E-2,6.193628E-3,3.7886385E-2,-1.0786148E-2,-2.4729775E-2,8.606095E-3,-5.0982594E-2,-3.8881055E-3,4.451723E-2,9.349337E-3,1.8737402E-2,-4.4258837E-2,3.4496043E-2,-1.7304309E-2,4.5567784E-2,9.644178E-3,3.145625E-2,-6.006808E-3,-5.011148E-2,-3.4216307E-3,-3.489518E-2,2.4253322E-2,2.6751563E-3,2.818338E-2,4.8273265E-2,2.4240121E-2,3.642946E-2,-4.2420747E-3],"categories":[],"categories_nodes":[],"categories_segments":[],"categories_sizes":[],"default_left":[0,0,0,0,0,0,0,0,0,0,0,0,0,0,0,0,0,0,0,0,0,0,0,0,0,0,0,0,0,0,0,0,0,0,0,0,0,0,0,0,0,0,0,0,0,0,0,0,0,0,0,0,0,0,0,0,0,0,0,0,0,0,0,0,0,0,0,0,0,0,0,0,0,0,0,0,0,0,0,0,0,0,0,0,0,0,0,0,0,0,0,0,0,0,0,0,0,0,0,0,0,0,0,0,0,0,0,0,0,0,0,0,0,0,0,0,0,0,0,0,0,0,0,0,0,0,0],"id":5,"left_children":[1,3,5,7,9,11,13,15,17,19,21,23,25,27,29,31,33,35,-1,37,39,-1,-1,41,43,-1,45,47,49,51,53,55,-1,57,59,61,63,65,67,-1,-1,69,71,73,75,77,-1,-1,79,-1,-1,81,83,-1,85,-1,-1,87,-1,89,91,93,95,97,-1,99,-1,101,-1,103,105,107,109,111,113,115,117,-1,-1,119,121,-1,-1,-1,-1,123,125,-1,-1,-1,-1,-1,-1,-1,-1,-1,-1,-1,-1,-1,-1,-1,-1,-1,-1,-1,-1,-1,-1,-1,-1,-1,-1,-1,-1,-1,-1,-1,-1,-1,-1,-1,-1,-1,-1,-1,-1],"loss_changes":[1.0933815E3,2.465379E2,1.7571661E2,3.0789307E1,2.946375E1,8.2559746E1,4.6652466E1,1.5557861E1,2.6424831E1,6.0378914E0,3.6311865E0,3.5057556E1,1.7534027E1,5.3896744E1,1.25529785E1,9.392956E0,4.0560303E0,2.4208546E1,0E0,3.6891403E0,6.0266747E0,0E0,0E0,2.6003166E1,2.975856E1,0E0,1.6442772E1,3.6080067E1,3.3182602E0,2.5393066E0,3.853391E1,2.8768847E0,0E0,2.359497E0,1.4820084E1,1.2645405E1,1.4674719E1,5.3818088E0,2.7426414E0,0E0,0E0,3.2745193E1,9.693977E0,2.117479E1,1.6217283E1,9.344257E0,0E0,0E0,1.3054611E1,0E0,0E0,4.9680786E0,2.7804337E0,0E0,5.621559E0,0E0,0E0,1.3499573E1,0E0,4.6085587E0,1.81283E1,9.980333E0,1.3005648E0,5.21595E0,0E0,3.0543718E0,0E0,7.380319E0,0E0,2.5713984E1,5.973755E0,6.1344185E0,1.4578875E1,1.3377434E1,1.804058E1,4.897917E0,5.2842407E0,0E0,0E0,1.121634E1,1.0459372E1,0E0,0E0,0E0,0E0,1.0941467E0,6.0649085E0,0E0,0E0,0E0,0E0,0E0,0E0,0E0,0E0,0E0,0E0,0E0,0E0,0E0,0E0,0E0,0E0,0E0,0E0,0E0,0E0,0E0,0E0,0E0,0E0,0E0,0E0,0E0,0E0,0E0,0E0,0E0,0E0,0E0,0E0,0E0,0E0,0E0,0E0,0E0,0E0],"parents":[2147483647,0,0,1,1,2,2,3,3,4,4,5,5,6,6,7,7,8,8,9,9,10,10,11,11,12,12,13,13,14,14,15,15,16,16,17,17,19,19,20,20,23,23,24,24,26,26,27,27,28,28,29,29,30,30,31,31,33,33,34,34,35,35,36,36,37,37,38,38,41,41,42,42,43,43,44,44,45,45,48,48,51,51,52,52,54,54,57,57,59,59,60,60,61,61,62,62,63,63,65,65,67,67,69,69,70,70,71,71,72,72,73,73,74,74,75,75,76,76,79,79,80,80,85,85,86,86],"right_children":[2,4,6,8,10,12,14,16,18,20,22,24,26,28,30,32,34,36,-1,38,40,-1,-1,42,44,-1,46,48,50,52,54,56,-1,58,60,62,64,66,68,-1,-1,70,72,74,76,78,-1,-1,80,-1,-1,82,84,-1,86,-1,-1,88,-1,90,92,94,96,98,-1,100,-1,102,-1,104,106,108,110,112,114,116,118,-1,-1,120,122,-1,-1,-1,-1,124,126,-1,-1,-1,-1,-1,-1,-1,-1,-1,-1,-1,-1,-1,-1,-1,-1,-1,-1,-1,-1,-1,-1,-1,-1,-1,-1,-1,-1,-1,-1,-1,-1,-1,-1,-1,-1,-1,-1,-1,-1],"split_conditions":[-1.736018E-1,1.5496086E0,1.2908013E0,-4.919503E-1,6.746069E-2,7.026838E-1,-1.0744723E-1,-1.7511909E0,-3.397336E-1,1E0,7.547014E-1,5.9899833E-2,4.6618402E-1,-6.492013E-1,1.1658957E0,1E0,-8.102988E-1,-9.78382E-1,-5.1932856E-2,1.9333214E0,1E0,-4.5788515E-2,-4.0683243E-3,-2.5655523E-1,1.91075E0,-5.234062E-2,1.4356335E0,-6.398118E-1,-7.752399E-1,-1.5346911E0,-5.0261134E-1,1E0,-4.294385E-2,-7.3009723E-1,1.2290579E0,9.3258506E-1,1.1433244E0,1.9140288E-1,-7.331765E-2,-1.880517E-2,2.9085847E-2,-5.188991E-1,1E0,-7.7694196E-1,1E0,1.0304676E0,-4.7707994E-2,-4.871406E-2,-9.055467E-1,1.4877583E-2,4.7230314E-2,4.517078E-1,-9.78382E-1,-4.7756236E-2,2.725605E0,-6.6720517E-3,2.9599E-2,-7.752399E-1,-5.3475663E-2,1E0,-6.849545E-1,-2.829537E-1,1.64412E0,-1.1558166E0,1.3951075E-2,1.8204647E0,-1.1546718E-2,-7.22817E-1,4.4845093E-2,-1.8156753E-1,9.724528E-1,1.3519163E-2,8.374847E-2,2.315558E0,1.5018521E-1,-1.7511909E0,-2.3569249E-1,3.2330498E-2,-1.9204868E-2,1E0,1.0981817E0,1.2964377E-2,5.1135708E-2,1.26669435E-2,4.1732702E-2,-1.7511909E0,1.707608E0,-4.732906E-2,-1.9226279E-3,-4.936479E-2,-2.4066249E-2,3.184733E-2,-4.4294745E-2,1.1741823E-2,-3.195292E-2,1.3974226E-2,4.035899E-2,-7.87404E-3,-5.135736E-2,3.7585735E-2,6.193628E-3,3.7886385E-2,-1.0786148E-2,-2.4729775E-2,8.606095E-3,-5.0982594E-2,-3.8881055E-3,4.451723E-2,9.349337E-3,1.8737402E-2,-4.4258837E-2,3.4496043E-2,-1.7304309E-2,4.5567784E-2,9.644178E-3,3.145625E-2,-6.006808E-3,-5.011148E-2,-3.4216307E-3,-3.489518E-2,2.4253322E-2,2.6751563E-3,2.818338E-2,4.8273265E-2,2.4240121E-2,3.642946E-2,-4.2420747E-3],"split_indices":[3,5,3,3,6,6,1,2,6,24,4,5,5,6,5,13,3,5,0,5,17,0,0,1,5,0,6,5,5,2,6,10,0,5,4,4,5,4,2,0,0,6,20,2,9,5,0,0,4,0,0,1,5,0,1,0,0,5,0,17,5,4,4,2,0,5,0,2,0,2,3,4,6,1,5,2,2,0,0,11,5,0,0,0,0,2,5,0,0,0,0,0,0,0,0,0,0,0,0,0,0,0,0,0,0,0,0,0,0,0,0,0,0,0,0,0,0,0,0,0,0,0,0,0,0,0,0],"split_type":[0,0,0,0,0,0,0,0,0,0,0,0,0,0,0,0,0,0,0,0,0,0,0,0,0,0,0,0,0,0,0,0,0,0,0,0,0,0,0,0,0,0,0,0,0,0,0,0,0,0,0,0,0,0,0,0,0,0,0,0,0,0,0,0,0,0,0,0,0,0,0,0,0,0,0,0,0,0,0,0,0,0,0,0,0,0,0,0,0,0,0,0,0,0,0,0,0,0,0,0,0,0,0,0,0,0,0,0,0,0,0,0,0,0,0,0,0,0,0,0,0,0,0,0,0,0,0],"sum_hessian":[1.3432847E3,5.017695E2,8.415152E2,4.3857846E2,6.3191025E1,4.630621E2,3.784531E2,3.6628006E2,7.2298416E1,5.5365932E1,7.8250947E0,4.261958E2,3.6866314E1,1.3272784E2,2.4572525E2,9.584955E0,3.566951E2,5.1046463E1,2.1251951E1,4.776495E1,7.600983E0,4.713696E0,3.1113985E0,1.752262E2,2.509696E2,2.0056936E1,1.680938E1,8.06296E1,5.2098244E1,2.0001158E2,4.5713657E1,6.350555E0,3.2343998E0,2.930567E2,6.363838E1,2.7333765E1,2.37127E1,1.6237541E1,3.1527409E1,4.360543E0,3.2404404E0,1.3465373E2,4.0572456E1,2.2907713E2,2.1892475E1,1.1096999E1,5.712381E0,8.649073E0,7.198053E1,4.255736E0,4.784251E1,1.3626477E2,6.374682E1,4.490067E0,4.122359E1,3.111158E0,3.239397E0,1.6009091E2,1.329658E2,5.4299633E1,9.338745E0,1.7082138E1,1.0251625E1,1.9459057E1,4.253643E0,1.2611985E1,3.625556E0,1.1188609E1,2.0338799E1,1.181609E2,1.6492838E1,2.3207321E1,1.7365137E1,1.0632665E2,1.2275048E2,1.10657015E1,1.0826773E1,6.4735484E0,4.623451E0,1.1101961E1,6.087857E1,3.9587736E0,1.32306E2,4.24804E0,5.949878E1,2.9264853E1,1.1958736E1,1.5387495E2,6.215952E0,4.311938E1,1.1180252E1,5.129339E0,4.209406E0,9.245414E0,7.836725E0,4.253868E0,5.9977574E0,3.3768919E0,1.6082165E1,7.8748946E0,4.73709E0,7.5672245E0,3.6213844E0,2.5806715E1,9.235418E1,1.3367551E1,3.1252856E0,1.634154E1,6.8657813E0,1.4123198E1,3.241939E0,1.0221182E2,4.114833E0,1.3389888E1,1.09360596E2,4.8423033E0,6.223398E0,7.710003E0,3.11677E0,7.6111174E0,3.4908438E0,2.363787E1,3.72407E1,2.3897776E1,5.3670764E0,6.2407894E0,5.717947E0],"tree_param":{"num_deleted":"0","num_feature":"25","num_nodes":"127","size_leaf_vector":"1"}},{"base_weights":[-3.6798918E-4,-1.13852E0,6.774054E-1,-1.3982617E0,6.534088E-1,2.7380994E-1,1.1706481E0,-1.5145372E0,-7.9780823E-1,9.051425E-1,-1.0278925E0,3.95261E-1,-1.1072657E0,6.9536155E-1,1.424223E0,-1.5480975E0,-2.6786146E-1,-4.017041E-1,-5.074242E-2,1.0313567E0,8.596442E-2,-4.481504E-2,-3.976334E-3,6.093006E-2,6.2768316E-1,-5.1117472E-2,-3.4155026E-1,1.9089149E-1,1.45985E0,1.5334148E0,9.2480874E-1,-1.441165E0,-5.1200602E-2,3.8867244E-1,-4.15708E-2,2.2256331E-1,-1.1031454E0,5.946101E-1,1.231706E0,-1.834377E-2,2.8463509E-2,-1.4557202E-1,7.339868E-1,7.311825E-1,-4.4010812E-1,3.5883465E-1,-4.6649937E-2,-4.7649574E-2,4.2257327E-1,1.4514978E-2,4.6060402E-2,1.305226E0,4.9602963E-2,-4.6659693E-2,1.2260345E0,-1.4767112E0,-5.655104E-1,2.9329157E-2,-8.225166E-3,-2.91119E-1,1.028845E0,-1.4505618E0,1.3614105E-2,8.8105094E-1,-1.127494E-2,7.32919E-1,4.377821E-2,3.7989892E-2,-1.3926977E0,1.1342833E0,1.6711232E-1,3.7864584E-1,9.987956E-1,3.7868896E-1,-1.2393929E0,3.1564817E-2,-1.873718E-2,-5.128061E-1,5.988618E-1,6.3130826E-1,1.4467912E0,1.4586068E0,5.902135E-1,-2.8697195E-2,-4.6398994E-2,-4.5405794E-2,3.311196E-2,-3.138519E-2,1.2690368E-2,1.3636624E-2,3.940626E-2,-7.692534E-3,-5.0183862E-2,3.664956E-2,6.0413484E-3,-1.0818821E-2,3.717462E-2,-2.4042677E-2,8.35007E-3,-4.9818195E-2,-3.8001272E-3,4.3397542E-2,9.106463E-3,1.8223822E-2,-4.331555E-2,2.1264536E-2,-1.7937196E-2,3.1804297E-2,-1.8706163E-2,3.0734366E-2,-5.851686E-3,-3.0796903E-3,-4.9051948E-2,-3.3959962E-2,2.3715423E-2,2.5981823E-3,2.741619E-2,-1.0417718E-2,4.3846942E-2,4.764625E-2,2.7372371E-2,4.7153056E-2,2.3658784E-2,4.5741417E-2,-8.8020805E-3],"categories":[],"categories_nodes":[],"categories_segments":[],"categories_sizes":[],"default_left":[0,0,0,0,0,0,0,0,0,0,0,0,0,0,0,0,0,0,0,0,0,0,0,0,0,0,0,0,0,0,0,0,0,0,0,0,0,0,0,0,0,0,0,0,0,0,0,0,0,0,0,0,0,0,0,0,0,0,0,0,0,0,0,0,0,0,0,0,0,0,0,0,0,0,0,0,0,0,0,0,0,0,0,0,0,0,0,0,0,0,0,0,0,0,0,0,0,0,0,0,0,0,0,0,0,0,0,0,0,0,0,0,0,0,0,0,0,0,0,0,0,0,0,0,0],"id":6,"left_children":[1,3,5,7,9,11,13,15,17,19,21,23,25,27,29,31,33,35,-1,37,39,-1,-1,41,43,-1,45,47,49,51,53,55,-1,57,-1,59,61,63,65,-1,-1,67,69,71,73,75,-1,-1,77,-1,-1,79,-1,-1,81,83,85,-1,-1,87,89,91,-1,93,-1,95,-1,97,99,101,103,105,107,109,111,-1,-1,113,115,117,119,121,123,-1,-1,-1,-1,-1,-1,-1,-1,-1,-1,-1,-1,-1,-1,-1,-1,-1,-1,-1,-1,-1,-1,-1,-1,-1,-1,-1,-1,-1,-1,-1,-1,-1,-1,-1,-1,-1,-1,-1,-1,-1,-1],"loss_changes":[1.0339332E3,2.3375305E2,1.6691055E2,2.9319214E1,2.8023777E1,7.8151924E1,4.4535034E1,1.4864685E1,2.5176544E1,5.7229614E0,3.4751244E0,3.3111656E1,1.664814E1,5.1157524E1,1.1962219E1,3.567627E0,8.451835E0,2.2982445E1,0E0,3.5214653E0,5.7522883E0,0E0,0E0,2.457654E1,2.8122086E1,0E0,1.565828E1,3.4266544E1,3.1529999E0,3.3144836E0,3.6677185E1,5.972412E0,0E0,3.224818E0,0E0,1.2022902E1,1.397473E1,5.1181793E0,2.6073494E0,0E0,0E0,3.1085196E1,9.22752E0,2.1292328E1,1.5424974E1,8.892096E0,0E0,0E0,1.2328131E1,0E0,0E0,6.1104965E0,0E0,0E0,5.3587456E0,6.1418457E0,1.7736464E1,0E0,0E0,1.018576E1,1.2400055E0,4.9756966E0,0E0,2.9013195E0,0E0,7.1773605E0,0E0,2.425902E1,5.697796E0,5.826618E0,1.3893551E1,3.2902943E1,1.3596085E1,4.6661577E0,5.138546E0,0E0,0E0,1.0659044E1,9.893469E0,1.2332798E1,3.0902863E0,1.043747E0,1.1135902E1,0E0,0E0,0E0,0E0,0E0,0E0,0E0,0E0,0E0,0E0,0E0,0E0,0E0,0E0,0E0,0E0,0E0,0E0,0E0,0E0,0E0,0E0,0E0,0E0,0E0,0E0,0E0,0E0,0E0,0E0,0E0,0E0,0E0,0E0,0E0,0E0,0E0,0E0,0E0,0E0,0E0,0E0],"parents":[2147483647,0,0,1,1,2,2,3,3,4,4,5,5,6,6,7,7,8,8,9,9,10,10,11,11,12,12,13,13,14,14,15,15,16,16,17,17,19,19,20,20,23,23,24,24,26,26,27,27,28,28,29,29,30,30,31,31,33,33,35,35,36,36,37,37,38,38,41,41,42,42,43,43,44,44,45,45,48,48,51,51,54,54,55,55,56,56,59,59,60,60,61,61,63,63,65,65,67,67,68,68,69,69,70,70,71,71,72,72,73,73,74,74,77,77,78,78,79,79,80,80,81,81,82,82],"right_children":[2,4,6,8,10,12,14,16,18,20,22,24,26,28,30,32,34,36,-1,38,40,-1,-1,42,44,-1,46,48,50,52,54,56,-1,58,-1,60,62,64,66,-1,-1,68,70,72,74,76,-1,-1,78,-1,-1,80,-1,-1,82,84,86,-1,-1,88,90,92,-1,94,-1,96,-1,98,100,102,104,106,108,110,112,-1,-1,114,116,118,120,122,124,-1,-1,-1,-1,-1,-1,-1,-1,-1,-1,-1,-1,-1,-1,-1,-1,-1,-1,-1,-1,-1,-1,-1,-1,-1,-1,-1,-1,-1,-1,-1,-1,-1,-1,-1,-1,-1,-1,-1,-1,-1,-1],"split_conditions":[-1.736018E-1,1.5496086E0,1.2908013E0,-4.919503E-1,6.746069E-2,7.026838E-1,-1.0744723E-1,2.477539E0,-3.397336E-1,1E0,7.547014E-1,5.9899833E-2,4.6618402E-1,-6.492013E-1,1.1658957E0,-4.8181242E-1,-6.492013E-1,-9.78382E-1,-5.074242E-2,1.9333214E0,1E0,-4.481504E-2,-3.976334E-3,-2.5655523E-1,1.91075E0,-5.1117472E-2,1.4356335E0,-6.398118E-1,-7.752399E-1,1.0885022E0,-5.0261134E-1,-5.4952645E-1,-5.1200602E-2,1E0,-4.15708E-2,9.3258506E-1,1.1433244E0,1.9140288E-1,-7.331765E-2,-1.834377E-2,2.8463509E-2,-5.188991E-1,1E0,3.01884E-2,1E0,1.0304676E0,-4.6649937E-2,-4.7649574E-2,-9.055467E-1,1.4514978E-2,4.6060402E-2,-3.8859692E-1,4.9602963E-2,-4.6659693E-2,2.725605E0,-1.274426E-1,-6.8295944E-1,2.9329157E-2,-8.225166E-3,-4.328239E-1,1.64412E0,-1.1558166E0,1.3614105E-2,1.8204647E0,-1.127494E-2,2.9476684E-1,4.377821E-2,-1.8156753E-1,9.724528E-1,1.3519163E-2,8.374847E-2,9.627536E-1,2.315558E0,-1.7511909E0,3.357558E-1,3.1564817E-2,-1.873718E-2,1E0,1.0981817E0,1E0,1E0,-1.7511909E0,6.254899E-1,-2.8697195E-2,-4.6398994E-2,-4.5405794E-2,3.311196E-2,-3.138519E-2,1.2690368E-2,1.3636624E-2,3.940626E-2,-7.692534E-3,-5.0183862E-2,3.664956E-2,6.0413484E-3,-1.0818821E-2,3.717462E-2,-2.4042677E-2,8.35007E-3,-4.9818195E-2,-3.8001272E-3,4.3397542E-2,9.106463E-3,1.8223822E-2,-4.331555E-2,2.1264536E-2,-1.7937196E-2,3.1804297E-2,-1.8706163E-2,3.0734366E-2,-5.851686E-3,-3.0796903E-3,-4.9051948E-2,-3.3959962E-2,2.3715423E-2,2.5981823E-3,2.741619E-2,-1.0417718E-2,4.3846942E-2,4.764625E-2,2.7372371E-2,4.7153056E-2,2.3658784E-2,4.5741417E-2,-8.8020805E-3],"split_indices":[3,5,3,3,6,6,1,0,6,24,4,5,5,6,5,5,6,5,0,5,17,0,0,1,5,0,6,5,5,0,6,5,0,20,0,4,5,4,2,0,0,6,20,0,9,5,0,0,4,0,0,6,0,0,1,2,3,0,0,0,4,2,0,5,0,0,0,2,3,4,6,5,1,2,3,0,0,11,5,14,21,2,0,0,0,0,0,0,0,0,0,0,0,0,0,0,0,0,0,0,0,0,0,0,0,0,0,0,0,0,0,0,0,0,0,0,0,0,0,0,0,0,0,0,0],"split_type":[0,0,0,0,0,0,0,0,0,0,0,0,0,0,0,0,0,0,0,0,0,0,0,0,0,0,0,0,0,0,0,0,0,0,0,0,0,0,0,0,0,0,0,0,0,0,0,0,0,0,0,0,0,0,0,0,0,0,0,0,0,0,0,0,0,0,0,0,0,0,0,0,0,0,0,0,0,0,0,0,0,0,0,0,0,0,0,0,0,0,0,0,0,0,0,0,0,0,0,0,0,0,0,0,0,0,0,0,0,0,0,0,0,0,0,0,0,0,0,0,0,0,0,0,0],"sum_hessian":[1.3383177E3,4.9925806E2,8.390597E2,4.3624384E2,6.3014225E1,4.62321E2,3.7673868E2,3.6419626E2,7.204757E1,5.5209583E1,7.80464E0,4.2560715E2,3.6713863E1,1.3237135E2,2.4436731E2,3.5441373E2,9.782549E0,5.092419E1,2.1123379E1,4.7614414E1,7.595169E0,4.693622E0,3.1110177E0,1.7505663E2,2.505505E2,1.9946314E1,1.676755E1,8.050047E1,5.1870888E1,1.9882568E2,4.554163E1,2.1770695E2,1.3670677E2,6.573845E0,3.2087045E0,2.7305553E1,2.3618639E1,1.6221218E1,3.1393196E1,4.361256E0,3.2339127E0,1.345567E2,4.049993E1,2.2869836E2,2.1852142E1,1.1077853E1,5.689697E0,8.600089E0,7.190038E1,4.2561617E0,4.7614727E1,7.2623E1,1.26202675E2,4.481342E0,4.1060287E1,2.085545E2,9.1524515E0,3.2294369E0,3.3444083E0,1.7069504E1,1.023605E1,1.9365717E1,4.2529216E0,1.2595558E1,3.6256611E0,1.1157862E1,2.0235334E1,1.1813777E2,1.6418922E1,2.3150995E1,1.7348936E1,9.9732254E1,1.2896613E2,1.105425E1,1.0797893E1,6.456178E0,4.621675E0,1.1099264E1,6.0801117E1,1.3554872E1,5.906813E1,2.911608E1,1.1944209E1,2.6453304E1,1.821012E2,5.8967714E0,3.2556796E0,8.07102E0,8.998483E0,4.2531734E0,5.982877E0,3.3764758E0,1.5989242E1,7.859535E0,4.7360225E0,3.621812E0,7.5360494E0,2.5776915E1,9.236086E1,1.3294049E1,3.124873E0,1.628687E1,6.864125E0,1.4113898E1,3.2350378E0,7.473764E1,2.4994612E1,1.24600945E2,4.365179E0,4.831012E0,6.223238E0,3.1132379E0,7.6846547E0,7.613586E0,3.4856787E0,2.3637653E1,3.7163464E1,6.4887643E0,7.0661077E0,4.514813E1,1.392E1,2.3757397E1,5.3586826E0,5.452345E0,6.491864E0],"tree_param":{"num_deleted":"0","num_feature":"25","num_nodes":"125","size_leaf_vector":"1"}},{"base_weights":[-4.014591E-4,-1.1112336E0,6.595899E-1,-1.3653591E0,6.369061E-1,2.6583737E-1,1.1424123E0,-1.5416915E0,-9.8068404E-1,8.829185E-1,-1.0054708E0,3.8396636E-1,-1.0816779E0,6.769519E-1,1.3915703E0,-4.674234E-3,-1.5695719E0,-6.8824095E-1,-1.5820913E0,1.0062112E0,8.465144E-2,-3.5945212E-3,-4.4081733E-2,5.892849E-2,6.101373E-1,-4.997976E-2,-3.341847E-1,1.8517274E-1,1.4246237E0,1.498701E0,9.0262616E-1,-1.4476459E0,-5.1140253E-2,-9.156098E-1,9.922922E-2,-1.633098E-2,-5.077946E-2,5.7934034E-1,1.2027378E0,-1.8127168E-2,2.8191675E-2,-1.4186206E-1,7.1423507E-1,7.10856E-1,-4.290654E-1,3.498121E-1,-4.5655254E-2,-4.6651475E-2,4.107324E-1,1.4162474E-2,4.4961583E-2,1.273912E0,4.851995E-2,-4.562841E-2,1.1976466E0,-1.5050734E0,-7.158374E-4,-1.0044346E0,1.3451997E-2,9.7005826E-1,-4.6359487E-2,8.5913664E-1,-1.1010134E-2,7.15171E-1,4.2771406E-2,3.672504E-2,-1.3610061E0,8.636429E-1,-1.53956255E-2,3.6764696E-1,9.719654E-1,-4.8585698E-2,4.8344514E-1,3.0829316E-2,-1.828347E-2,5.63583E-1,-6.3672715E-1,6.1610854E-1,1.4124935E0,1.4254719E0,5.767023E-1,-3.6276355E-2,-4.8423856E-2,-5.016026E-2,-2.3414662E-2,6.4204377E-3,3.874511E-2,3.576669E-2,5.891304E-3,-1.0565652E-2,3.6336318E-2,-2.338061E-2,8.101966E-3,-4.8731815E-2,-3.7141514E-3,-2.4773746E-3,3.0864296E-2,2.0655353E-2,-1.7429708E-2,3.213448E-2,-2.748557E-3,-8.236079E-3,3.7761826E-2,-4.1743089E-4,2.4430163E-2,-4.5228217E-2,4.7008465E-3,-1.0142754E-2,4.2888083E-2,4.6547934E-2,2.667128E-2,4.6102505E-2,2.309635E-2,4.4791624E-2,-8.572311E-3],"categories":[],"categories_nodes":[],"categories_segments":[],"categories_sizes":[],"default_left":[0,0,0,0,0,0,0,0,0,0,0,0,0,0,0,0,0,0,0,0,0,0,0,0,0,0,0,0,0,0,0,0,0,0,0,0,0,0,0,0,0,0,0,0,0,0,0,0,0,0,0,0,0,0,0,0,0,0,0,0,0,0,0,0,0,0,0,0,0,0,0,0,0,0,0,0,0,0,0,0,0,0,0,0,0,0,0,0,0,0,0,0,0,0,0,0,0,0,0,0,0,0,0,0,0,0,0,0,0,0,0,0,0,0,0],"id":7,"left_children":[1,3,5,7,9,11,13,15,17,19,21,23,25,27,29,-1,31,33,35,37,39,-1,-1,41,43,-1,45,47,49,51,53,55,-1,57,59,-1,-1,61,63,-1,-1,65,67,69,71,73,-1,-1,75,-1,-1,77,-1,-1,79,81,-1,83,-1,85,-1,87,-1,89,-1,91,93,95,-1,97,99,-1,101,-1,-1,103,105,107,109,111,113,-1,-1,-1,-1,-1,-1,-1,-1,-1,-1,-1,-1,-1,-1,-1,-1,-1,-1,-1,-1,-1,-1,-1,-1,-1,-1,-1,-1,-1,-1,-1,-1,-1,-1],"loss_changes":[9.783503E2,2.2182013E2,1.5884094E2,2.796405E1,2.6668373E1,7.401831E1,4.26315E1,1.120105E1,2.3416916E1,5.428959E0,3.4314032E0,3.1270538E1,1.583514E1,4.861886E1,1.1416382E1,0E0,2.3137207E0,1.7192986E1,4.220276E0,3.3668098E0,5.6262555E0,0E0,0E0,2.3238731E1,2.6577858E1,0E0,1.4924531E1,3.2568916E1,3.0049286E0,3.231659E0,3.4945667E1,1.2981506E1,0E0,9.442181E0,3.3438816E1,0E0,0E0,4.869512E0,2.4852676E0,0E0,0E0,2.9537424E1,8.036955E0,2.0183449E1,2.5552986E1,8.464788E0,0E0,0E0,1.2014979E1,0E0,0E0,5.8081894E0,0E0,0E0,5.0996246E0,2.985382E0,0E0,9.158058E0,0E0,3.4165497E0,0E0,2.7624607E0,0E0,6.8453918E0,0E0,2.2890873E1,5.44635E0,5.9124527E0,0E0,3.103454E1,1.3766228E1,0E0,8.383448E0,0E0,0E0,9.28829E0,6.9666586E0,1.1755881E1,2.9704285E0,1.0014038E0,1.0633606E1,0E0,0E0,0E0,0E0,0E0,0E0,0E0,0E0,0E0,0E0,0E0,0E0,0E0,0E0,0E0,0E0,0E0,0E0,0E0,0E0,0E0,0E0,0E0,0E0,0E0,0E0,0E0,0E0,0E0,0E0,0E0,0E0,0E0,0E0],"parents":[2147483647,0,0,1,1,2,2,3,3,4,4,5,5,6,6,7,7,8,8,9,9,10,10,11,11,12,12,13,13,14,14,16,16,17,17,18,18,19,19,20,20,23,23,24,24,26,26,27,27,28,28,29,29,30,30,31,31,33,33,34,34,37,37,38,38,41,41,42,42,43,43,44,44,45,45,48,48,51,51,54,54,55,55,57,57,59,59,61,61,63,63,65,65,66,66,67,67,69,69,70,70,72,72,75,75,76,76,77,77,78,78,79,79,80,80],"right_children":[2,4,6,8,10,12,14,16,18,20,22,24,26,28,30,-1,32,34,36,38,40,-1,-1,42,44,-1,46,48,50,52,54,56,-1,58,60,-1,-1,62,64,-1,-1,66,68,70,72,74,-1,-1,76,-1,-1,78,-1,-1,80,82,-1,84,-1,86,-1,88,-1,90,-1,92,94,96,-1,98,100,-1,102,-1,-1,104,106,108,110,112,114,-1,-1,-1,-1,-1,-1,-1,-1,-1,-1,-1,-1,-1,-1,-1,-1,-1,-1,-1,-1,-1,-1,-1,-1,-1,-1,-1,-1,-1,-1,-1,-1,-1,-1],"split_conditions":[-1.736018E-1,1.5496086E0,1.2908013E0,-8.102988E-1,6.746069E-2,7.026838E-1,-1.0744723E-1,-1.7511909E0,-2.0943142E-1,1E0,1.6850367E0,5.9899833E-2,4.6618402E-1,-6.492013E-1,1.1658957E0,-4.674234E-3,-7.3009723E-1,9.9187964E-1,-7.466291E-1,1.9333214E0,7.577791E-1,-3.5945212E-3,-4.4081733E-2,-2.5655523E-1,1.91075E0,-4.997976E-2,1.4356335E0,-6.398118E-1,-7.752399E-1,1.0885022E0,-5.0261134E-1,-7.752399E-1,-5.1140253E-2,1.816093E0,-6.849545E-1,-1.633098E-2,-5.077946E-2,1.9140288E-1,-7.331765E-2,-1.8127168E-2,2.8191675E-2,-5.188991E-1,-2.7867034E-1,3.01884E-2,1E0,1.0304676E0,-4.5655254E-2,-4.6651475E-2,1E0,1.4162474E-2,4.4961583E-2,-3.8859692E-1,4.851995E-2,-4.562841E-2,2.725605E0,-7.2766304E-1,-7.158374E-4,-9.055467E-1,1.3451997E-2,-7.6354694E-1,-4.6359487E-2,1E0,-1.1010134E-2,2.9476684E-1,4.2771406E-2,-1.8156753E-1,9.724528E-1,-1.697066E0,-1.53956255E-2,9.627536E-1,1E0,-4.8585698E-2,1.6247763E-1,3.0829316E-2,-1.828347E-2,7.821829E-1,1.617556E-1,1E0,1E0,-1.7511909E0,6.254899E-1,-3.6276355E-2,-4.8423856E-2,-5.016026E-2,-2.3414662E-2,6.4204377E-3,3.874511E-2,3.576669E-2,5.891304E-3,-1.0565652E-2,3.6336318E-2,-2.338061E-2,8.101966E-3,-4.8731815E-2,-3.7141514E-3,-2.4773746E-3,3.0864296E-2,2.0655353E-2,-1.7429708E-2,3.213448E-2,-2.748557E-3,-8.236079E-3,3.7761826E-2,-4.1743089E-4,2.4430163E-2,-4.5228217E-2,4.7008465E-3,-1.0142754E-2,4.2888083E-2,4.6547934E-2,2.667128E-2,4.6102505E-2,2.309635E-2,4.4791624E-2,-8.572311E-3],"split_indices":[3,5,3,3,6,6,1,2,6,24,5,5,5,6,5,0,5,4,3,5,0,0,0,1,5,0,6,5,5,0,6,5,0,0,5,0,0,4,2,0,0,6,5,0,12,5,0,0,14,0,0,6,0,0,1,4,0,4,0,0,0,7,0,0,0,2,3,2,0,5,19,0,0,0,0,5,4,14,21,2,0,0,0,0,0,0,0,0,0,0,0,0,0,0,0,0,0,0,0,0,0,0,0,0,0,0,0,0,0,0,0,0,0,0,0],"split_type":[0,0,0,0,0,0,0,0,0,0,0,0,0,0,0,0,0,0,0,0,0,0,0,0,0,0,0,0,0,0,0,0,0,0,0,0,0,0,0,0,0,0,0,0,0,0,0,0,0,0,0,0,0,0,0,0,0,0,0,0,0,0,0,0,0,0,0,0,0,0,0,0,0,0,0,0,0,0,0,0,0,0,0,0,0,0,0,0,0,0,0,0,0,0,0,0,0,0,0,0,0,0,0,0,0,0,0,0,0,0,0,0,0,0,0],"sum_hessian":[1.3324669E3,4.963597E2,8.3610724E2,4.335534E2,6.28063E1,4.6138672E2,3.7472055E2,2.952191E2,1.3833434E2,5.50263E1,7.780001E0,4.24857E2,3.6529728E1,1.3194554E2,2.4277501E2,5.951828E0,2.8926724E2,9.451797E1,4.3816364E1,4.743885E1,7.5874486E0,3.1069353E0,4.673066E0,1.7484373E2,2.5001326E2,1.9813095E1,1.6716633E1,8.034591E1,5.159964E1,1.974478E2,4.5327206E1,1.5820648E2,1.3106076E2,7.321549E1,2.1302473E1,4.789018E0,3.9027344E1,1.6199715E1,3.1239136E1,4.3645134E0,3.2229357E0,1.3443532E2,4.0408413E1,2.2821117E2,2.1802092E1,1.10551815E1,5.6614513E0,8.542813E0,7.180309E1,4.256124E0,4.7343513E1,7.226119E1,1.251866E2,4.4679446E0,4.085926E1,1.5201784E2,6.1886477E0,6.898667E1,4.22882E0,1.4195648E1,7.1068244E0,1.2574183E1,3.6255307E0,1.1123498E1,2.0115639E1,1.18104576E2,1.6330748E1,3.6287678E1,4.120733E0,9.964421E1,1.2856696E2,9.124067E0,1.2678024E1,6.4360566E0,4.619125E0,6.3062626E1,8.740468E0,1.3522051E1,5.8739143E1,2.894401E1,1.1915252E1,4.419819E1,1.0781964E2,1.5704885E1,5.3281788E1,4.731915E0,9.463734E0,7.836753E0,4.7374306E0,3.6213067E0,7.502191E0,2.5740492E1,9.236408E1,1.3206302E1,3.1244464E0,5.4671392E0,3.082054E1,7.466418E1,2.4980026E1,1.17593704E2,1.0973256E1,6.7371297E0,5.940894E0,1.9378325E1,4.36843E1,3.7377195E0,5.0027485E0,6.491796E0,7.030255E0,4.485499E1,1.3884155E1,2.3595013E1,5.3489966E0,5.4225683E0,6.4926834E0],"tree_param":{"num_deleted":"0","num_feature":"25","num_nodes":"115","size_leaf_vector":"1"}},{"base_weights":[-4.959345E-4,7.9878384E-1,-5.106656E-1,3.5546145E-1,1.0591214E0,-3.5533097E-1,-1.2923878E0,-1.114685E0,9.35342E-1,1.218382E0,1.7268531E-1,-4.3699437E-1,6.448766E-1,-1.5605751E0,-7.0148605E-1,-4.9752224E-2,-7.504861E-1,4.681535E-1,1.1011412E0,1.301922E0,4.7331622E-1,5.3883857E-1,-7.844386E-1,-5.5160624E-1,4.1355458E-1,-6.9486356E-1,1.1395421E0,-6.632231E-1,-4.998815E-2,1.0384924E0,-1.34662E0,3.4477141E-1,-1.172793E0,1.1945376E0,-1.0179697E-1,1.3496388E0,8.2670456E-1,1.3662294E0,-2.8418815E-1,1.0748911E0,-1.062051E0,7.4668074E-1,-3.8999617E-2,-1.2832596E0,1.3091689E-2,-8.354012E-1,-3.6988923E-1,8.01439E-1,-8.7932557E-1,-4.981609E-2,2.1504635E-2,4.10765E-2,7.290146E-1,-4.537367E-2,2.1751696E-2,-3.7382792E-3,4.30355E-2,-1.4855607E0,-4.992269E-4,-1.7915424E-2,3.7863176E-2,-4.5111455E-2,4.49658E-3,3.9917177E-1,4.9000233E-2,2.2322369E-1,-4.6404056E-2,1.9125681E-2,1.4211694E0,1.2737931E0,3.2391605E-1,1.4504924E0,9.9522316E-1,-4.3760125E-2,1.7214788E-2,-4.0039527E-3,4.4545915E-2,-5.4375445E-3,-4.5193374E-2,-2.0944646E-2,9.7828186E-1,-7.2072027E-3,-5.060577E-2,-6.503361E-1,-1.5576525E0,2.7833128E-1,-5.7142085E-1,1.0828478E0,2.7657613E-1,1.604723E-1,-4.9726117E-2,-1.299691E-3,3.418333E-2,-4.9675602E-2,-8.576602E-4,-7.641946E-3,2.8237777E-2,-1.575169E-2,2.078616E-2,4.4996884E-2,2.0400582E-2,2.3013288E-2,4.432738E-2,2.1424348E-2,-4.5806855E-2,4.512045E-2,3.1143565E-2,3.748491E-2,-2.5497025E-2,3.4043852E-2,-6.5320428E-3,-2.1172553E-2,3.167632E-2,-4.997962E-2,-2.4564298E-2,1.4865268E-2,-2.8741218E-2,-1.2465655E-2,-3.7415415E-2,2.2312678E-2,3.9521314E-2,3.016531E-2,-1.3651397E-2,-1.6437132E-2,3.0357895E-2],"categories":[],"categories_nodes":[],"categories_segments":[],"categories_sizes":[],"default_left":[0,0,0,0,0,0,0,0,0,0,0,0,0,0,0,0,0,0,0,0,0,0,0,0,0,0,0,0,0,0,0,0,0,0,0,0,0,0,0,0,0,0,0,0,0,0,0,0,0,0,0,0,0,0,0,0,0,0,0,0,0,0,0,0,0,0,0,0,0,0,0,0,0,0,0,0,0,0,0,0,0,0,0,0,0,0,0,0,0,0,0,0,0,0,0,0,0,0,0,0,0,0,0,0,0,0,0,0,0,0,0,0,0,0,0,0,0,0,0,0,0,0,0,0,0],"id":8,"left_children":[1,3,5,7,9,11,13,15,17,19,21,23,25,27,29,-1,31,33,35,37,39,41,43,45,47,49,51,53,-1,55,57,59,61,63,65,67,69,71,73,75,77,79,-1,81,-1,83,85,87,89,-1,-1,-1,91,-1,-1,-1,-1,93,-1,-1,-1,-1,-1,95,-1,97,-1,-1,99,101,103,105,107,-1,-1,-1,-1,-1,-1,-1,109,-1,-1,111,113,115,117,119,121,123,-1,-1,-1,-1,-1,-1,-1,-1,-1,-1,-1,-1,-1,-1,-1,-1,-1,-1,-1,-1,-1,-1,-1,-1,-1,-1,-1,-1,-1,-1,-1,-1,-1,-1,-1],"loss_changes":[5.41497E2,5.9336E1,9.7967545E1,1.6551137E2,4.5735657E1,5.5627174E1,2.0138748E1,9.652092E0,1.0243294E1,1.6545563E1,1.8202055E1,6.1353333E1,3.4955467E1,7.5585785E0,5.0390312E1,0E0,1.6491585E1,1.5903686E1,5.8249817E0,2.5618011E1,2.8268494E1,1.5221398E1,9.35661E0,2.820958E1,3.8331993E1,2.0987446E1,2.58741E0,1.44032E1,0E0,5.876458E0,5.939293E0,9.784725E0,1.1312016E1,5.2249126E0,1.0810125E1,1.7341309E0,1.1039204E1,5.993347E0,1.1383645E1,1.0898033E1,3.1600857E0,1.2105776E1,0E0,4.01849E0,0E0,2.7734741E1,4.4435535E1,8.302444E0,1.466332E1,0E0,0E0,0E0,5.0519276E0,0E0,0E0,0E0,0E0,7.20018E0,0E0,0E0,0E0,0E0,0E0,2.8311033E0,0E0,7.0635295E0,0E0,0E0,1.6807632E0,1.6156769E0,1.937715E1,2.669098E0,2.3213741E1,0E0,0E0,0E0,0E0,0E0,0E0,0E0,5.832262E0,0E0,0E0,1.709526E1,2.0898743E0,2.2238806E1,2.675415E1,2.0079422E0,1.2014174E1,5.698071E0,0E0,0E0,0E0,0E0,0E0,0E0,0E0,0E0,0E0,0E0,0E0,0E0,0E0,0E0,0E0,0E0,0E0,0E0,0E0,0E0,0E0,0E0,0E0,0E0,0E0,0E0,0E0,0E0,0E0,0E0,0E0,0E0,0E0,0E0,0E0],"parents":[2147483647,0,0,1,1,2,2,3,3,4,4,5,5,6,6,7,7,8,8,9,9,10,10,11,11,12,12,13,13,14,14,16,16,17,17,18,18,19,19,20,20,21,21,22,22,23,23,24,24,25,25,26,26,27,27,29,29,30,30,31,31,32,32,33,33,34,34,35,35,36,36,37,37,38,38,39,39,40,40,41,41,43,43,45,45,46,46,47,47,48,48,52,52,57,57,63,63,65,65,68,68,69,69,70,70,71,71,72,72,80,80,83,83,84,84,85,85,86,86,87,87,88,88,89,89],"right_children":[2,4,6,8,10,12,14,16,18,20,22,24,26,28,30,-1,32,34,36,38,40,42,44,46,48,50,52,54,-1,56,58,60,62,64,66,68,70,72,74,76,78,80,-1,82,-1,84,86,88,90,-1,-1,-1,92,-1,-1,-1,-1,94,-1,-1,-1,-1,-1,96,-1,98,-1,-1,100,102,104,106,108,-1,-1,-1,-1,-1,-1,-1,110,-1,-1,112,114,116,118,120,122,124,-1,-1,-1,-1,-1,-1,-1,-1,-1,-1,-1,-1,-1,-1,-1,-1,-1,-1,-1,-1,-1,-1,-1,-1,-1,-1,-1,-1,-1,-1,-1,-1,-1,-1,-1],"split_conditions":[-7.22817E-1,-3.3110923E-1,7.026838E-1,2.6304194E-1,-1.2640665E0,1.8656074E0,6.008158E-1,-5.9466916E-1,8.7246823E-1,1.91075E0,1.0304676E0,-3.3110923E-1,-7.331765E-2,-1.274426E-1,-5.651131E-1,-4.9752224E-2,-3.689557E-1,-7.5731033E-1,1.91075E0,2.0708566E0,1.286936E0,1.9894178E0,1E0,-8.203826E-1,4.932007E-1,3.01884E-2,1E0,-2.3569249E-1,-4.998815E-2,-9.78382E-1,1E0,1E0,1E0,-1.1016916E0,1.3530806E0,-1.1723723E0,-1.697066E0,-1.642941E0,1E0,7.1897155E-1,1.7191259E0,-1.024136E0,-3.8999617E-2,1.5349178E-1,1.3091689E-2,-3.7230915E-1,8.9057185E-2,1E0,-3.9152706E-1,-4.981609E-2,2.1504635E-2,4.10765E-2,1E0,-4.537367E-2,2.1751696E-2,-3.7382792E-3,4.30355E-2,1.3013238E0,-4.992269E-4,-1.7915424E-2,3.7863176E-2,-4.5111455E-2,4.49658E-3,1.6838037E0,4.9000233E-2,1E0,-4.6404056E-2,1.9125681E-2,1E0,1E0,1E0,7.515471E-1,1.0981817E0,-4.3760125E-2,1.7214788E-2,-4.0039527E-3,4.4545915E-2,-5.4375445E-3,-4.5193374E-2,-2.0944646E-2,1.3530806E0,-7.2072027E-3,-5.060577E-2,2.5335386E0,1E0,1.3690377E0,-5.651131E-1,1E0,-5.651131E-1,1.9140288E-1,-4.9726117E-2,-1.299691E-3,3.418333E-2,-4.9675602E-2,-8.576602E-4,-7.641946E-3,2.8237777E-2,-1.575169E-2,2.078616E-2,4.4996884E-2,2.0400582E-2,2.3013288E-2,4.432738E-2,2.1424348E-2,-4.5806855E-2,4.512045E-2,3.1143565E-2,3.748491E-2,-2.5497025E-2,3.4043852E-2,-6.5320428E-3,-2.1172553E-2,3.167632E-2,-4.997962E-2,-2.4564298E-2,1.4865268E-2,-2.8741218E-2,-1.2465655E-2,-3.7415415E-2,2.2312678E-2,3.9521314E-2,3.016531E-2,-1.3651397E-2,-1.6437132E-2,3.0357895E-2],"split_indices":[2,1,6,5,2,5,1,5,5,5,5,1,2,2,0,0,5,4,5,6,0,6,18,5,0,0,9,2,0,5,23,15,17,2,0,4,2,2,12,6,1,4,0,1,0,6,2,13,5,0,0,0,16,0,0,0,0,5,0,0,0,0,0,0,0,20,0,0,24,13,8,6,5,0,0,0,0,0,0,0,0,0,0,4,23,5,0,16,0,4,0,0,0,0,0,0,0,0,0,0,0,0,0,0,0,0,0,0,0,0,0,0,0,0,0,0,0,0,0,0,0,0,0,0,0],"split_type":[0,0,0,0,0,0,0,0,0,0,0,0,0,0,0,0,0,0,0,0,0,0,0,0,0,0,0,0,0,0,0,0,0,0,0,0,0,0,0,0,0,0,0,0,0,0,0,0,0,0,0,0,0,0,0,0,0,0,0,0,0,0,0,0,0,0,0,0,0,0,0,0,0,0,0,0,0,0,0,0,0,0,0,0,0,0,0,0,0,0,0,0,0,0,0,0,0,0,0,0,0,0,0,0,0,0,0,0,0,0,0,0,0,0,0,0,0,0,0,0,0,0,0,0,0],"sum_hessian":[1.3259523E3,5.163789E2,8.095734E2,1.9192311E2,3.2445578E2,6.7658496E2,1.3298845E2,5.402742E1,1.3789569E2,2.747234E2,4.973239E1,6.2603455E2,5.0550396E1,9.034388E1,4.264457E1,2.0246822E1,3.3780598E1,3.71207E1,1.0077499E2,2.4635376E2,2.8369616E1,3.6287445E1,1.3444946E1,5.5200336E2,7.4031235E1,1.3522274E1,3.7028122E1,1.0286596E1,8.005728E1,1.1369736E1,3.1274834E1,9.451538E0,2.4329062E1,1.5838791E1,2.128191E1,5.0830765E1,4.9944225E1,2.3688797E2,9.465794E0,2.0598711E1,7.770904E0,3.313602E1,3.1514225E0,9.508647E0,3.936299E0,2.140755E2,3.3792783E2,5.7238808E1,1.6792429E1,7.9249067E0,5.597368E0,2.224668E1,1.4781441E1,6.326891E0,3.9597054E0,3.06204E0,8.307696E0,2.8210724E1,3.0641081E0,4.83539E0,4.6161485E0,1.9350798E1,4.978263E0,6.3103914E0,9.528399E0,1.8064285E1,3.2176251E0,5.5446E0,4.5286167E1,2.5624765E1,2.4319458E1,1.9067279E2,4.621518E1,3.7004387E0,5.765355E0,5.389151E0,1.5209561E1,3.0780358E0,4.692868E0,4.299468E0,2.8836554E1,3.0979292E0,6.410718E0,1.7192339E2,4.215212E1,8.005433E1,2.578735E2,3.6568985E1,2.0669823E1,7.527906E0,9.264523E0,5.439657E0,9.341784E0,2.5136263E1,3.0744615E0,3.1004755E0,3.2099159E0,6.9203196E0,1.1143965E1,4.0012226E1,5.2739396E0,8.716587E0,1.6908178E1,2.0591953E1,3.7275054E0,1.6642496E2,2.4247837E1,4.0901424E1,5.313755E0,2.5544884E1,3.2916696E0,1.670831E2,4.8402863E0,3.566742E1,6.4846997E0,6.860295E1,1.1451381E1,2.1084587E2,4.702763E1,1.6656956E1,1.9912027E1,1.0166413E1,1.050341E1,4.3038197E0,3.2240865E0],"tree_param":{"num_deleted":"0","num_feature":"25","num_nodes":"125","size_leaf_vector":"1"}},{"base_weights":[-5.276997E-4,-1.0689286E0,6.320047E-1,-1.3144594E0,6.120305E-1,2.574648E-1,1.0945438E0,-1.4269406E0,-7.382841E-1,8.488456E-1,-9.685988E-1,3.705165E-1,-1.0409888E0,7.047586E-1,1.3744806E0,-2.5008225E-1,-1.458314E0,-3.6238462E-1,-4.7960285E-2,9.6997815E-1,6.9996685E-2,-4.267338E-2,-3.2622607E-3,6.426039E-2,5.8404624E-1,-4.8189208E-2,-3.2244903E-1,1.0886643E0,1.4355515E-1,1.0662206E0,4.2386428E-2,-4.4420574E-2,2.977984E-2,-1.352523E0,-4.851177E-2,2.3675376E-1,-1.0407282E0,1.1215377E0,4.7704923E-1,2.7282113E-2,-1.8063774E-2,-3.4030008E-1,2.8861874E-1,6.812429E-1,-4.2032638E-1,3.3947214E-1,-4.4280317E-2,1.1994853E0,5.6966E-1,-4.5595888E-2,3.8722962E-1,1.2579502E0,2.7976888E-3,-1.1482757E0,-4.577629E-2,7.926778E-1,-1.9128245E-1,-1.3797361E0,1.3747151E-2,1.2640395E0,1.1685126E-2,-9.314858E-2,4.2082943E-2,1.123935E-1,-8.8063306E-1,-4.8827004E-2,4.1887206E-1,1.0125507E0,4.5047745E-1,-4.7224376E-2,4.619678E-1,2.965424E-2,-1.7290885E-2,1.0070789E0,4.214357E-2,2.916918E-2,3.5881486E-2,5.471538E-1,-5.69649E-1,4.1960116E-2,1.9445267E-2,-3.677725E-2,9.796982E-3,-1.1769669E-2,4.1092493E-2,-1.720623E-2,3.2184087E-2,-6.313407E-3,-4.806918E-2,1.8164042E-2,4.1665632E-2,-1.8281773E-2,1.3654354E-2,1.4313613E-2,-1.6287293E-2,-3.4258164E-2,1.7868772E-2,1.8905045E-3,2.2307934E-2,6.8530873E-3,3.5728503E-2,4.1590568E-2,1.00703575E-2,2.9396828E-2,-1.5583392E-2,3.4137156E-2,-9.941962E-3,1.5634246E-2,-1.9093078E-2,2.3194822E-2,-1.09838E-2,8.450503E-3,-4.6043184E-2],"categories":[],"categories_nodes":[],"categories_segments":[],"categories_sizes":[],"default_left":[0,0,0,0,0,0,0,0,0,0,0,0,0,0,0,0,0,0,0,0,0,0,0,0,0,0,0,0,0,0,0,0,0,0,0,0,0,0,0,0,0,0,0,0,0,0,0,0,0,0,0,0,0,0,0,0,0,0,0,0,0,0,0,0,0,0,0,0,0,0,0,0,0,0,0,0,0,0,0,0,0,0,0,0,0,0,0,0,0,0,0,0,0,0,0,0,0,0,0,0,0,0,0,0,0,0,0,0,0,0,0,0,0],"id":9,"left_children":[1,3,5,7,9,11,13,15,17,19,21,23,25,27,29,31,33,35,-1,37,39,-1,-1,41,43,-1,45,47,49,51,-1,-1,-1,53,-1,55,57,59,61,-1,-1,63,65,67,69,71,-1,73,75,-1,77,79,-1,81,-1,83,85,87,-1,89,-1,91,-1,93,95,-1,97,99,101,-1,103,-1,-1,105,-1,107,-1,109,111,-1,-1,-1,-1,-1,-1,-1,-1,-1,-1,-1,-1,-1,-1,-1,-1,-1,-1,-1,-1,-1,-1,-1,-1,-1,-1,-1,-1,-1,-1,-1,-1,-1,-1],"loss_changes":[8.936677E2,2.0376782E2,1.436156E2,2.6775757E1,2.4537876E1,6.795159E1,3.955075E1,1.2860535E1,2.2774391E1,5.1808968E0,3.2492485E0,2.7699928E1,1.4563519E1,3.37276E1,1.0394897E0,1.7539984E1,3.6687012E0,2.1195932E1,0E0,3.0560951E0,5.380318E0,0E0,0E0,1.6015713E1,2.4670914E1,0E0,1.393952E1,4.679268E0,2.6949629E1,5.0873165E0,0E0,0E0,0E0,5.872986E0,0E0,6.858591E0,1.301132E1,3.2655907E0,7.0159144E0,0E0,0E0,1.5513734E1,2.8972366E1,1.6985268E1,2.3793499E1,7.69979E0,0E0,1.5844193E0,6.1639967E0,0E0,9.114299E0,1.0864754E0,0E0,1.2183014E1,0E0,9.054905E0,8.699444E0,4.8981247E0,0E0,1.6011696E0,0E0,2.8276303E0,0E0,8.666607E0,1.1806028E1,0E0,1.2309404E1,1.2717598E1,1.4175028E1,0E0,7.4285145E0,0E0,0E0,7.8587265E0,0E0,3.8858385E0,0E0,1.0561309E1,7.6028695E0,0E0,0E0,0E0,0E0,0E0,0E0,0E0,0E0,0E0,0E0,0E0,0E0,0E0,0E0,0E0,0E0,0E0,0E0,0E0,0E0,0E0,0E0,0E0,0E0,0E0,0E0,0E0,0E0,0E0,0E0,0E0,0E0,0E0,0E0],"parents":[2147483647,0,0,1,1,2,2,3,3,4,4,5,5,6,6,7,7,8,8,9,9,10,10,11,11,12,12,13,13,14,14,15,15,16,16,17,17,19,19,20,20,23,23,24,24,26,26,27,27,28,28,29,29,33,33,35,35,36,36,37,37,38,38,41,41,42,42,43,43,44,44,45,45,47,47,48,48,50,50,51,51,53,53,55,55,56,56,57,57,59,59,61,61,63,63,64,64,66,66,67,67,68,68,70,70,73,73,75,75,77,77,78,78],"right_children":[2,4,6,8,10,12,14,16,18,20,22,24,26,28,30,32,34,36,-1,38,40,-1,-1,42,44,-1,46,48,50,52,-1,-1,-1,54,-1,56,58,60,62,-1,-1,64,66,68,70,72,-1,74,76,-1,78,80,-1,82,-1,84,86,88,-1,90,-1,92,-1,94,96,-1,98,100,102,-1,104,-1,-1,106,-1,108,-1,110,112,-1,-1,-1,-1,-1,-1,-1,-1,-1,-1,-1,-1,-1,-1,-1,-1,-1,-1,-1,-1,-1,-1,-1,-1,-1,-1,-1,-1,-1,-1,-1,-1,-1,-1],"split_conditions":[-1.736018E-1,1.5496086E0,1.2908013E0,-4.919503E-1,6.746069E-2,7.026838E-1,-6.492013E-1,-1.7511909E0,-3.397336E-1,1E0,-8.102988E-1,5.9899833E-2,4.6618402E-1,-1.588816E0,1.4818105E0,1E0,-4.8181242E-1,-9.78382E-1,-4.7960285E-2,1E0,-6.145671E-1,-4.267338E-2,-3.2622607E-3,2.7208608E-1,1.91075E0,-4.8189208E-2,1.4356335E0,1.7527506E0,-6.623832E-1,9.627536E-1,4.2386428E-2,-4.4420574E-2,2.977984E-2,1E0,-4.851177E-2,-3.646109E-1,1.1433244E0,-5.5562E-1,-5.188991E-1,2.7282113E-2,-1.8063774E-2,1E0,-1.642941E0,-9.934417E-1,1E0,1.0304676E0,-4.4280317E-2,2.3095164E0,1E0,-4.5595888E-2,1E0,1.0773026E0,2.7976888E-3,-5.4952645E-1,-4.577629E-2,1E0,-5.188991E-1,-1.1558166E0,1.3747151E-2,-1.274426E-1,1.1685126E-2,5.2205676E-1,4.2082943E-2,-9.78382E-1,1E0,-4.8827004E-2,-8.655253E-1,5.1132673E-1,1.5018521E-1,-4.7224376E-2,1E0,2.965424E-2,-1.7290885E-2,1E0,4.214357E-2,2.0548377E0,3.5881486E-2,1.6173226E0,-8.3106685E-1,4.1960116E-2,1.9445267E-2,-3.677725E-2,9.796982E-3,-1.1769669E-2,4.1092493E-2,-1.720623E-2,3.2184087E-2,-6.313407E-3,-4.806918E-2,1.8164042E-2,4.1665632E-2,-1.8281773E-2,1.3654354E-2,1.4313613E-2,-1.6287293E-2,-3.4258164E-2,1.7868772E-2,1.8905045E-3,2.2307934E-2,6.8530873E-3,3.5728503E-2,4.1590568E-2,1.00703575E-2,2.9396828E-2,-1.5583392E-2,3.4137156E-2,-9.941962E-3,1.5634246E-2,-1.9093078E-2,2.3194822E-2,-1.09838E-2,8.450503E-3,-4.6043184E-2],"split_indices":[3,5,3,3,6,6,6,2,6,24,3,5,5,2,3,15,5,5,0,13,2,0,0,3,5,0,6,5,5,5,0,0,0,7,0,3,5,3,6,0,0,9,2,2,12,5,0,3,9,0,24,6,0,5,0,13,6,2,0,2,0,2,0,5,23,0,5,5,5,0,9,0,0,14,0,3,0,5,2,0,0,0,0,0,0,0,0,0,0,0,0,0,0,0,0,0,0,0,0,0,0,0,0,0,0,0,0,0,0,0,0,0,0],"split_type":[0,0,0,0,0,0,0,0,0,0,0,0,0,0,0,0,0,0,0,0,0,0,0,0,0,0,0,0,0,0,0,0,0,0,0,0,0,0,0,0,0,0,0,0,0,0,0,0,0,0,0,0,0,0,0,0,0,0,0,0,0,0,0,0,0,0,0,0,0,0,0,0,0,0,0,0,0,0,0,0,0,0,0,0,0,0,0,0,0,0,0,0,0,0,0,0,0,0,0,0,0,0,0,0,0,0,0,0,0,0,0,0,0],"sum_hessian":[1.3203889E3,4.9076138E2,8.2962756E2,4.2840417E2,6.235722E1,4.5928186E2,3.7034567E2,3.571957E2,7.120845E1,5.4634644E1,7.7225747E0,4.2315402E2,3.6127865E1,1.562709E2,2.1407477E2,9.508012E0,3.476877E2,5.0546303E1,2.0662151E1,4.7068752E1,7.565891E0,4.6263986E0,3.096176E0,1.743675E2,2.4878651E2,1.9528284E1,1.659958E1,9.223518E1,6.403573E1,2.6899973E1,1.871748E2,4.6811376E0,4.8268743E0,2.1435635E2,1.3333136E2,2.7185785E1,2.3360518E1,3.5024582E1,1.2044169E1,3.207297E0,4.358594E0,6.2018913E1,1.1234858E2,2.2712825E2,2.165826E1,1.0995824E1,5.603758E0,7.492551E1,1.7309679E1,7.5128407E0,5.652289E1,2.2227066E1,4.672907E0,1.0190935E2,1.12447E2,1.1455604E1,1.5730182E1,1.9116625E1,4.2438927E0,2.8709148E1,6.3154354E0,8.0098505E0,4.034319E0,3.4177135E1,2.7841778E1,6.4191813E0,1.059294E2,9.185913E1,1.3526912E2,9.045224E0,1.2613036E1,6.388983E0,4.606841E0,4.1725746E1,3.3199757E1,9.853762E0,7.4559174E0,4.8795784E1,7.7271037E0,1.700825E1,5.2188168E0,9.697364E1,4.935705E0,3.8565152E0,7.5990887E0,1.249729E1,3.2328923E0,3.368016E0,1.5748608E1,5.5063653E0,2.3202784E1,4.068106E0,3.9417446E0,2.2131277E1,1.2045858E1,2.3847164E1,3.994613E0,5.111184E1,5.4817562E1,1.7448532E1,7.44106E1,1.3569568E1,1.21699554E2,8.2570505E0,4.3559847E0,3.8147007E1,3.5787406E0,5.7906947E0,4.063067E0,3.9238873E1,9.55691E0,4.4818325E0,3.2452712E0],"tree_param":{"num_deleted":"0","num_feature":"25","num_nodes":"113","size_leaf_vector":"1"}},{"base_weights":[-5.622727E-4,-1.045068E0,6.1567605E-1,-1.2859478E0,5.97135E-1,2.5016382E-1,1.068916E0,-1.4575111E0,-9.147867E-1,8.286708E-1,-9.485217E-1,3.601082E-1,-1.0190688E0,6.8697184E-1,4.0321544E-2,-1.4836125E0,-4.255072E-1,-6.3670075E-1,-1.4939816E0,9.471171E-1,6.907073E-2,-4.218425E-2,-2.654911E-3,6.2125433E-2,5.682497E-1,-4.7244947E-2,-3.1589836E-1,1.0139749E-1,1.2533574E0,-1.3589468E0,-4.8664622E-2,-4.090771E-2,2.2348257E-2,-8.5615736E-1,1.2014281E-1,-1.42875835E-2,-4.814333E-2,5.480758E-1,3.3979796E-2,-1.7638618E-2,2.6739923E-2,-3.307524E-1,2.7989197E-1,6.628291E-1,-4.109993E-1,3.31206E-1,-4.3421216E-2,-4.522434E-2,3.1731093E-1,1.3853621E0,2.0843095E-1,-1.4167583E0,1.0282043E-3,-9.400234E-1,1.2763124E-2,9.5383096E-1,-4.4289853E-2,8.2007927E-1,-1.095961E-2,5.251537E-1,-6.620723E-1,-2.82757E-1,5.78339E-1,3.4517E-1,9.065202E-1,-4.625992E-2,4.5014828E-1,2.8990122E-2,-1.687906E-2,-5.577038E-1,4.9173936E-1,9.5536256E-1,4.4883594E-2,2.8520158E-2,-1.9184278E-2,-3.360209E-2,-4.579646E-2,-4.7883023E-2,-2.1664156E-2,6.373396E-3,3.8076393E-2,3.468527E-2,4.7580115E-3,2.9817019E-2,-1.8895572E-2,-3.2714043E-2,4.5944816E-3,3.843194E-3,-5.163433E-2,8.637882E-3,3.0364046E-2,1.966974E-2,-1.712076E-2,3.0061558E-2,-3.2055457E-3,-7.979793E-3,3.5702627E-2,-4.8782475E-2,1.0714758E-2,-2.0561395E-2,2.1105453E-2,1.0859642E-2,4.2806994E-2],"categories":[],"categories_nodes":[],"categories_segments":[],"categories_sizes":[],"default_left":[0,0,0,0,0,0,0,0,0,0,0,0,0,0,0,0,0,0,0,0,0,0,0,0,0,0,0,0,0,0,0,0,0,0,0,0,0,0,0,0,0,0,0,0,0,0,0,0,0,0,0,0,0,0,0,0,0,0,0,0,0,0,0,0,0,0,0,0,0,0,0,0,0,0,0,0,0,0,0,0,0,0,0,0,0,0,0,0,0,0,0,0,0,0,0,0,0,0,0,0,0,0,0],"id":10,"left_children":[1,3,5,7,9,11,13,15,17,19,21,23,25,27,-1,29,31,33,35,37,39,-1,-1,41,43,-1,45,47,49,51,-1,-1,-1,53,55,-1,-1,57,-1,-1,-1,59,61,63,65,67,-1,-1,69,71,73,75,-1,77,-1,79,-1,81,-1,83,85,87,89,91,93,-1,95,-1,-1,97,99,101,-1,-1,-1,-1,-1,-1,-1,-1,-1,-1,-1,-1,-1,-1,-1,-1,-1,-1,-1,-1,-1,-1,-1,-1,-1,-1,-1,-1,-1,-1,-1],"loss_changes":[8.4663745E2,1.938363E2,1.3678177E2,2.5790527E1,2.3373638E1,6.445438E1,3.785446E1,7.170166E0,2.116903E1,4.9214325E0,3.2952995E0,2.6224297E1,1.3911976E1,5.1797226E1,0E0,2.6673584E0,1.0399693E1,1.5803722E1,4.1753845E0,2.9235687E0,5.146188E0,0E0,0E0,1.5085276E1,2.334774E1,0E0,1.3313299E1,2.7595804E1,1.0676437E1,1.2503479E1,0E0,0E0,0E0,8.289558E0,3.0856602E1,0E0,0E0,4.555869E0,0E0,0E0,0E0,1.8199461E1,1.918686E1,1.7304764E1,2.2668003E1,7.33615E0,0E0,0E0,1.090517E1,1.9236145E0,6.9601526E0,3.1272888E0,0E0,8.740517E0,0E0,3.27104E0,0E0,2.819891E0,0E0,1.0439333E1,1.61712E1,2.3821836E1,9.07527E0,2.8928345E1,1.2515396E1,0E0,7.514109E0,0E0,0E0,1.2354367E1,1.5092086E1,4.292204E0,0E0,0E0,0E0,0E0,0E0,0E0,0E0,0E0,0E0,0E0,0E0,0E0,0E0,0E0,0E0,0E0,0E0,0E0,0E0,0E0,0E0,0E0,0E0,0E0,0E0,0E0,0E0,0E0,0E0,0E0,0E0],"parents":[2147483647,0,0,1,1,2,2,3,3,4,4,5,5,6,6,7,7,8,8,9,9,10,10,11,11,12,12,13,13,15,15,16,16,17,17,18,18,19,19,20,20,23,23,24,24,26,26,27,27,28,28,29,29,33,33,34,34,37,37,41,41,42,42,43,43,44,44,45,45,48,48,49,49,50,50,51,51,53,53,55,55,57,57,59,59,60,60,61,61,62,62,63,63,64,64,66,66,69,69,70,70,71,71],"right_children":[2,4,6,8,10,12,14,16,18,20,22,24,26,28,-1,30,32,34,36,38,40,-1,-1,42,44,-1,46,48,50,52,-1,-1,-1,54,56,-1,-1,58,-1,-1,-1,60,62,64,66,68,-1,-1,70,72,74,76,-1,78,-1,80,-1,82,-1,84,86,88,90,92,94,-1,96,-1,-1,98,100,102,-1,-1,-1,-1,-1,-1,-1,-1,-1,-1,-1,-1,-1,-1,-1,-1,-1,-1,-1,-1,-1,-1,-1,-1,-1,-1,-1,-1,-1,-1,-1],"split_conditions":[-1.736018E-1,1.5496086E0,1.2908013E0,-8.102988E-1,6.746069E-2,7.026838E-1,-6.492013E-1,2.477539E0,-2.0943142E-1,1E0,7.547014E-1,5.9899833E-2,4.6618402E-1,8.9006835E-1,4.0321544E-2,-7.3009723E-1,1E0,9.9187964E-1,-7.466291E-1,1.9333214E0,7.577791E-1,-4.218425E-2,-2.654911E-3,2.7208608E-1,1.91075E0,-4.7244947E-2,1.4356335E0,-6.398118E-1,1.1658957E0,-7.752399E-1,-4.8664622E-2,-4.090771E-2,2.2348257E-2,1.816093E0,-6.849545E-1,-1.42875835E-2,-4.814333E-2,1.9140288E-1,3.3979796E-2,-1.7638618E-2,2.6739923E-2,-1.024136E0,-2.2365914E-1,3.01884E-2,1E0,1.0304676E0,-4.3421216E-2,-4.522434E-2,1.4818105E0,1.4853698E0,1.6728195E0,-7.2766304E-1,1.0282043E-3,-9.055467E-1,1.2763124E-2,-7.6354694E-1,-4.4289853E-2,1.8204647E0,-1.095961E-2,1E0,1E0,1E0,1E0,9.627536E-1,1E0,-4.625992E-2,1.6247763E-1,2.8990122E-2,-1.687906E-2,-6.9740236E-1,-1.1130778E0,1E0,4.4883594E-2,2.8520158E-2,-1.9184278E-2,-3.360209E-2,-4.579646E-2,-4.7883023E-2,-2.1664156E-2,6.373396E-3,3.8076393E-2,3.468527E-2,4.7580115E-3,2.9817019E-2,-1.8895572E-2,-3.2714043E-2,4.5944816E-3,3.843194E-3,-5.163433E-2,8.637882E-3,3.0364046E-2,1.966974E-2,-1.712076E-2,3.0061558E-2,-3.2055457E-3,-7.979793E-3,3.5702627E-2,-4.8782475E-2,1.0714758E-2,-2.0561395E-2,2.1105453E-2,1.0859642E-2,4.2806994E-2],"split_indices":[3,5,3,3,6,6,6,0,6,24,4,5,5,0,0,5,15,4,3,5,0,0,0,3,5,0,6,5,5,5,0,0,0,0,5,0,0,4,0,0,0,4,4,0,12,5,0,0,3,0,3,4,0,4,0,0,0,5,0,13,8,10,15,5,19,0,0,0,0,0,4,8,0,0,0,0,0,0,0,0,0,0,0,0,0,0,0,0,0,0,0,0,0,0,0,0,0,0,0,0,0,0,0],"split_type":[0,0,0,0,0,0,0,0,0,0,0,0,0,0,0,0,0,0,0,0,0,0,0,0,0,0,0,0,0,0,0,0,0,0,0,0,0,0,0,0,0,0,0,0,0,0,0,0,0,0,0,0,0,0,0,0,0,0,0,0,0,0,0,0,0,0,0,0,0,0,0,0,0,0,0,0,0,0,0,0,0,0,0,0,0,0,0,0,0,0,0,0,0,0,0,0,0,0,0,0,0,0,0],"sum_hessian":[1.3133401E3,4.8707187E2,8.2626825E2,4.2495587E2,6.211599E1,4.5825974E2,3.680085E2,2.886194E2,1.3633649E2,5.4426846E1,7.689143E0,4.2238763E2,3.587209E1,1.5555847E2,2.1245003E2,2.8107288E2,7.5465198E0,9.352978E1,4.2806705E1,4.687124E1,7.555609E0,4.6042275E0,3.0849156E0,1.7423915E2,2.4814848E2,1.9343786E1,1.6528303E1,7.706332E1,7.8495155E1,1.5363469E2,1.27438194E2,4.0974836E0,3.4490366E0,7.240405E1,2.1125721E1,4.7228627E0,3.8083843E1,1.6131536E1,3.07397E1,4.3581753E0,3.197434E0,6.1951725E1,1.1228743E2,2.2658702E2,2.156146E1,1.09647255E1,5.5635777E0,8.41053E0,6.865279E1,6.940188E1,9.093284E0,1.474974E2,6.13728E0,6.820718E1,4.196877E0,1.4142796E1,6.982926E0,1.2508694E1,3.6228435E0,1.712564E1,4.4826084E1,3.8935886E1,7.335154E1,9.941406E1,1.27172966E2,8.978635E0,1.2582825E1,6.362591E0,4.602134E0,1.1045592E1,5.7607193E1,1.6186405E1,5.321547E1,4.7841415E0,4.309142E0,4.2864857E1,1.04632545E2,1.5427555E1,5.277962E1,4.7202616E0,9.422534E0,7.7984495E0,4.7102437E0,1.2281009E1,4.8446317E0,2.9163265E1,1.5662818E1,3.0993725E1,7.942164E0,4.493383E1,2.8417713E1,7.445653E1,2.4957535E1,1.1622725E2,1.0945716E1,6.7197328E0,5.8630924E0,4.736679E0,6.308913E0,8.44283E0,4.9164364E1,7.9499717E0,8.236433E0],"tree_param":{"num_deleted":"0","num_feature":"25","num_nodes":"103","size_leaf_vector":"1"}},{"base_weights":[-7.734397E-4,-1.0226047E0,5.999835E-1,-1.2590343E0,5.8210474E-1,2.4309447E-1,1.0444937E0,-1.3689855E0,-7.000001E-1,3.058408E-1,3.3261254E-2,-8.517587E-2,4.774185E-1,1.2405987E0,7.535394E-1,-1.3999943E0,-2.3894483E-1,-1.7044204E-1,-1.2062402E0,-1.20624E0,7.06999E-1,-4.82379E-1,1.5156256E-1,5.7380575E-1,-5.0663966E-1,1.3180082E0,9.276778E-1,-4.2701426E-1,8.8350606E-1,-1.2950118E0,-4.6716843E-2,-4.209235E-2,2.9078424E-2,-6.2847453E-1,8.4735E-1,-2.004312E-3,-1.4265999E0,-6.1955843E-3,-5.0107975E-2,2.7249733E-1,1.3002704E0,3.7680236E-1,-7.8328985E-1,-4.7892023E-2,2.7114165E-1,6.560115E-1,-3.6014628E-1,-4.5996692E-2,3.282141E-1,9.888544E-1,1.4189633E0,1.1519369E0,-1.0796462E-2,-4.6280365E-2,4.8801622E-1,9.9020815E-1,2.4697104E-1,-1.3297781E0,-4.5820376E-1,-1.0366236E0,3.8324958E-1,1.0169767E-2,3.3529967E-2,-4.708121E-2,-1.6351905E-2,-3.5965952E-1,2.570735E-2,4.4984326E-2,1.6751166E-2,7.9035115E-1,-1.9607825E-2,-1.148064E0,-4.72725E-2,-1.0274613E-1,6.41004E-1,8.68703E-1,2.227601E-1,-9.64721E-1,4.3819E-1,7.9743534E-1,-1.8549608E-2,-6.251081E-1,1.3396066E0,4.4713378E-2,9.159624E-1,-1.1415545E-2,1.2900995E0,-5.5791303E-3,2.6728213E-2,9.041894E-1,1.4227011E0,-1.1557189E0,3.2932043E-2,-2.4646083E-2,-4.1982766E-2,-4.1754443E-2,3.3569656E-2,-8.258798E-3,-4.620547E-2,2.6913136E-2,-6.16669E-3,-4.3955635E-2,1.8787246E-2,4.3621184E-3,4.4556096E-2,-4.3523002E-2,-1.7969446E-2,-2.996256E-2,2.1327274E-2,-3.9249178E-2,8.934756E-3,6.3444064E-3,3.529181E-2,1.1907673E-2,2.9262206E-2,-9.390847E-3,2.042414E-2,-5.02259E-2,-3.1446174E-3,2.8253848E-2,-1.1059469E-2,3.8115343E-3,4.0620346E-2,-4.778736E-2,2.024938E-2,2.1356298E-2,4.374976E-2,3.57523E-2,-1.1463424E-2,1.6464233E-2,4.2074535E-2,1.980996E-2,3.3634722E-2,1.298697E-2,5.0258573E-2,-4.899778E-2,-7.988165E-3],"categories":[],"categories_nodes":[],"categories_segments":[],"categories_sizes":[],"default_left":[0,0,0,0,0,0,0,0,0,0,0,0,0,0,0,0,0,0,0,0,0,0,0,0,0,0,0,0,0,0,0,0,0,0,0,0,0,0,0,0,0,0,0,0,0,0,0,0,0,0,0,0,0,0,0,0,0,0,0,0,0,0,0,0,0,0,0,0,0,0,0,0,0,0,0,0,0,0,0,0,0,0,0,0,0,0,0,0,0,0,0,0,0,0,0,0,0,0,0,0,0,0,0,0,0,0,0,0,0,0,0,0,0,0,0,0,0,0,0,0,0,0,0,0,0,0,0,0,0,0,0,0,0,0,0,0,0],"id":11,"left_children":[1,3,5,7,9,11,13,15,17,19,-1,21,23,25,27,29,31,33,35,37,39,41,43,45,47,49,51,53,55,57,-1,-1,-1,59,61,-1,63,-1,-1,65,67,69,71,-1,73,75,77,-1,79,81,83,85,-1,-1,87,89,91,93,95,97,99,-1,-1,-1,-1,101,-1,-1,-1,103,-1,105,107,109,111,113,115,117,119,121,-1,123,125,-1,127,-1,129,-1,-1,131,133,135,-1,-1,-1,-1,-1,-1,-1,-1,-1,-1,-1,-1,-1,-1,-1,-1,-1,-1,-1,-1,-1,-1,-1,-1,-1,-1,-1,-1,-1,-1,-1,-1,-1,-1,-1,-1,-1,-1,-1,-1,-1,-1,-1,-1,-1],"loss_changes":[8.0270654E2,1.8441522E2,1.3038275E2,2.4998047E1,8.805065E0,3.527523E1,1.9972015E1,1.1994019E1,1.8949211E1,2.6697716E1,0E0,1.8092937E1,2.5656185E1,4.041931E0,2.3404076E1,3.6325684E0,1.6272596E1,1.7355053E1,9.035408E0,3.9707832E0,8.4885025E0,1.885865E1,2.5688816E1,1.8972527E1,2.1405128E1,4.307678E0,1.3835194E1,1.6635128E1,8.959908E0,5.5336304E0,0E0,0E0,0E0,1.09107685E1,1.2186356E0,0E0,2.973629E0,0E0,0E0,8.091156E0,1.266882E0,8.740505E0,1.4310097E1,0E0,1.5823454E1,2.0507668E1,1.0263008E1,0E0,6.8325605E0,2.5540928E1,3.281128E0,8.922417E0,0E0,0E0,2.693165E0,3.019127E0,2.6076294E1,6.0078735E0,1.620622E1,6.63455E0,2.6196573E0,0E0,0E0,0E0,0E0,1.2715537E1,0E0,0E0,0E0,6.1587934E0,0E0,5.069687E0,1.4252262E1,2.817051E1,1.2955832E1,7.180748E0,1.8696732E1,7.0930996E0,4.196605E0,3.5516396E0,0E0,1.1735346E1,1.6570435E0,0E0,7.1401844E0,0E0,2.2925148E0,0E0,0E0,4.512306E0,3.6388245E0,3.1055517E0,0E0,0E0,0E0,0E0,0E0,0E0,0E0,0E0,0E0,0E0,0E0,0E0,0E0,0E0,0E0,0E0,0E0,0E0,0E0,0E0,0E0,0E0,0E0,0E0,0E0,0E0,0E0,0E0,0E0,0E0,0E0,0E0,0E0,0E0,0E0,0E0,0E0,0E0,0E0,0E0,0E0,0E0,0E0,0E0,0E0],"parents":[2147483647,0,0,1,1,2,2,3,3,4,4,5,5,6,6,7,7,8,8,9,9,11,11,12,12,13,13,14,14,15,15,16,16,17,17,18,18,19,19,20,20,21,21,22,22,23,23,24,24,25,25,26,26,27,27,28,28,29,29,33,33,34,34,36,36,39,39,40,40,41,41,42,42,44,44,45,45,46,46,48,48,49,49,50,50,51,51,54,54,55,55,56,56,57,57,58,58,59,59,60,60,65,65,69,69,71,71,72,72,73,73,74,74,75,75,76,76,77,77,78,78,79,79,81,81,82,82,84,84,86,86,89,89,90,90,91,91],"right_children":[2,4,6,8,10,12,14,16,18,20,-1,22,24,26,28,30,32,34,36,38,40,42,44,46,48,50,52,54,56,58,-1,-1,-1,60,62,-1,64,-1,-1,66,68,70,72,-1,74,76,78,-1,80,82,84,86,-1,-1,88,90,92,94,96,98,100,-1,-1,-1,-1,102,-1,-1,-1,104,-1,106,108,110,112,114,116,118,120,122,-1,124,126,-1,128,-1,130,-1,-1,132,134,136,-1,-1,-1,-1,-1,-1,-1,-1,-1,-1,-1,-1,-1,-1,-1,-1,-1,-1,-1,-1,-1,-1,-1,-1,-1,-1,-1,-1,-1,-1,-1,-1,-1,-1,-1,-1,-1,-1,-1,-1,-1,-1,-1,-1,-1],"split_conditions":[-1.736018E-1,1.5496086E0,1.2908013E0,-4.919503E-1,9.0093136E-1,5.9899833E-2,-1.5346911E0,2.477539E0,-9.78382E-1,-1.0210082E-1,3.3261254E-2,2.7208608E-1,1.91075E0,1.91075E0,-7.9781127E-1,-4.8181242E-1,1E0,9.3258506E-1,-1.1558166E0,1.7527506E0,7.843486E-1,-1.024136E0,-1.642941E0,1E0,1E0,1.2207915E0,1.286936E0,8.468064E-1,1.6173226E0,-5.4952645E-1,-4.6716843E-2,-4.209235E-2,2.9078424E-2,1E0,1E0,-2.004312E-3,1.1433244E0,-6.1955843E-3,-5.0107975E-2,-6.8295944E-1,1E0,1E0,1E0,-4.7892023E-2,-8.655253E-1,-1.274426E-1,-1.274426E-1,-4.5996692E-2,6.541043E-1,1.7275655E-1,1.0304676E0,1.991168E0,-1.0796462E-2,-4.6280365E-2,1E0,9.0093136E-1,1.991168E0,-1.274426E-1,-6.8295944E-1,-5.794266E-1,-3.646109E-1,1.0169767E-2,3.3529967E-2,-4.708121E-2,-1.6351905E-2,1E0,2.570735E-2,4.4984326E-2,1.6751166E-2,8.1076995E-2,-1.9607825E-2,8.436432E-1,1E0,8.9057185E-2,-1.6824543E-1,2.7208608E-1,6.303066E-1,1E0,1.9730708E-1,-5.6044215E-1,-1.8549608E-2,1.0885022E0,-5.497793E-1,4.4713378E-2,2.0548377E0,-1.1415545E-2,-1.2316669E0,-5.5791303E-3,2.6728213E-2,1E0,1.4818105E0,3.3963934E-1,3.2932043E-2,-2.4646083E-2,-4.1982766E-2,-4.1754443E-2,3.3569656E-2,-8.258798E-3,-4.620547E-2,2.6913136E-2,-6.16669E-3,-4.3955635E-2,1.8787246E-2,4.3621184E-3,4.4556096E-2,-4.3523002E-2,-1.7969446E-2,-2.996256E-2,2.1327274E-2,-3.9249178E-2,8.934756E-3,6.3444064E-3,3.529181E-2,1.1907673E-2,2.9262206E-2,-9.390847E-3,2.042414E-2,-5.02259E-2,-3.1446174E-3,2.8253848E-2,-1.1059469E-2,3.8115343E-3,4.0620346E-2,-4.778736E-2,2.024938E-2,2.1356298E-2,4.374976E-2,3.57523E-2,-1.1463424E-2,1.6464233E-2,4.2074535E-2,1.980996E-2,3.3634722E-2,1.298697E-2,5.0258573E-2,-4.899778E-2,-7.988165E-3],"split_indices":[3,5,3,3,2,5,2,0,5,0,0,3,5,5,5,5,15,4,2,5,4,4,2,19,12,0,0,2,5,5,0,0,0,17,13,0,5,0,0,3,15,13,8,0,5,2,2,0,3,5,5,3,0,0,12,2,3,2,3,4,3,0,0,0,0,15,0,0,0,3,0,4,12,2,0,3,2,8,2,2,0,0,4,0,3,0,4,0,0,12,3,4,0,0,0,0,0,0,0,0,0,0,0,0,0,0,0,0,0,0,0,0,0,0,0,0,0,0,0,0,0,0,0,0,0,0,0,0,0,0,0,0,0,0,0,0,0],"split_type":[0,0,0,0,0,0,0,0,0,0,0,0,0,0,0,0,0,0,0,0,0,0,0,0,0,0,0,0,0,0,0,0,0,0,0,0,0,0,0,0,0,0,0,0,0,0,0,0,0,0,0,0,0,0,0,0,0,0,0,0,0,0,0,0,0,0,0,0,0,0,0,0,0,0,0,0,0,0,0,0,0,0,0,0,0,0,0,0,0,0,0,0,0,0,0,0,0,0,0,0,0,0,0,0,0,0,0,0,0,0,0,0,0,0,0,0,0,0,0,0,0,0,0,0,0,0,0,0,0,0,0,0,0,0,0,0,0],"sum_hessian":[1.3056124E3,4.831379E2,8.224745E2,4.2128357E2,6.185434E1,4.5705792E2,3.6541653E2,3.5083267E2,7.045088E1,4.160732E1,2.024702E1,1.9063255E2,2.6642538E2,2.1633888E2,1.4907765E2,3.4123032E2,9.602374E0,3.508574E1,3.5365147E1,8.303216E0,3.3304104E1,7.080213E1,1.1983043E2,2.4303711E2,2.3388277E1,1.7086003E2,4.547886E1,1.4557633E1,1.3452002E2,2.101516E2,1.310787E2,4.808286E0,4.794088E0,2.446043E1,1.0625307E1,5.9422593E0,2.9422888E1,3.0903249E0,5.212891E0,2.0066822E1,1.3237282E1,1.8299612E1,5.2502518E1,6.8819823E0,1.1294844E2,2.2364925E2,1.938785E1,1.0114454E1,1.3273824E1,4.263805E1,1.2822198E2,3.8822357E1,6.6565022E0,6.250584E0,8.307049E0,1.14731926E2,1.9788084E1,2.0120325E2,8.948355E0,1.741163E1,7.0488E0,4.471059E0,6.1542487E0,2.4650253E1,4.772635E0,9.8244095E0,1.0242413E1,9.630309E0,3.606972E0,1.3224811E1,5.0748024E0,3.47302E1,1.7772312E1,5.6527714E1,5.642073E1,1.4933348E2,7.431577E1,1.0914191E1,8.473659E0,8.979819E0,4.2940044E0,7.472349E0,3.5165703E1,1.1054855E2,1.7673422E1,3.065598E0,3.575676E1,3.309524E0,4.997525E0,9.8276344E1,1.6455585E1,7.3354206E0,1.2452664E1,2.5791256E1,1.7541199E2,5.6948514E0,3.2535028E0,7.5474052E0,9.864224E0,3.484368E0,3.564432E0,4.4020653E0,5.422344E0,7.485855E0,5.7389555E0,2.1329393E1,1.3400809E1,7.7407565E0,1.0031556E1,1.353292E1,4.2994793E1,3.2079502E1,2.4341228E1,2.8415771E1,1.2091771E2,3.4397083E1,3.9918686E1,5.4612927E0,5.4528985E0,5.1142383E0,3.3594203E0,4.630615E0,4.349204E0,4.154468E0,3.317881E0,6.7056494E0,2.8460052E1,1.4644137E1,3.0292838E0,5.481837E0,3.0274921E1,4.817469E1,5.0101654E1,3.8972673E0,1.2558318E1,4.2287545E0,3.106666E0],"tree_param":{"num_deleted":"0","num_feature":"25","num_nodes":"137","size_leaf_vector":"1"}},{"base_weights":[-7.9265266E-4,-1.0010499E0,5.8482856E-1,-1.2333821E0,5.6760883E-1,2.3617627E-1,1.0212069E0,-1.4017464E0,-8.7192917E-1,7.93311E-1,-9.3336433E-1,3.4266794E-1,-1.0000625E0,6.461655E-1,1.292521E0,-1.4270053E0,-4.109482E-1,-6.006985E-1,-1.4419888E0,9.0881896E-1,5.649929E-2,-2.489231E-3,-4.1590046E-2,5.7382584E-2,5.3790027E-1,-4.6135057E-2,-3.228542E-1,7.991306E-2,1.276547E0,8.808723E-1,3.955974E-2,-1.3033308E0,-4.6956256E-2,1.5963927E-2,-3.988267E-2,-8.1209517E-1,1.2685092E-1,-1.30924815E-2,-4.6600834E-2,5.223478E-1,3.270154E-2,-1.7168447E-2,2.5505207E-2,-1.5035985E-1,4.2003664E-1,-1.4816834E-1,6.648289E-1,3.066919E-1,-4.266854E-2,-1.0768672E0,3.7357292E-1,1.4199343E0,-4.2232923E-2,3.6234155E-2,-1.00652E-2,-1.3612525E0,2.0561633E-3,-6.4229923E-1,-4.6303887E-2,9.248111E-1,-4.266386E-2,7.8924984E-1,-1.1017598E-2,-3.2316697E-1,1.0873302E0,6.4722764E-1,-5.283539E-2,-1.0844319E0,4.2121747E-1,7.91342E-1,-2.8743115E-1,2.7801206E-2,-1.6727038E-2,-4.591609E-1,-4.744345E-2,-1.09237485E-1,8.1656724E-1,1.8728817E-2,4.4967692E-2,-3.1972025E-2,-4.413983E-2,-3.9254952E-2,-1.04335295E-2,5.925371E-3,3.707533E-2,3.349444E-2,4.4411733E-3,-3.3172444E-3,-4.8301823E-2,4.130463E-2,1.01549635E-2,3.4393586E-2,4.4185836E-3,-5.0416477E-2,-2.171779E-4,-1.8864105E-2,2.0915538E-2,1.5362154E-2,2.9552855E-2,-3.075281E-2,1.9596685E-2,-3.8514383E-2,9.294424E-3,3.8602008E-3,-4.9366746E-2,2.752956E-2,4.1316035E-3],"categories":[],"categories_nodes":[],"categories_segments":[],"categories_sizes":[],"default_left":[0,0,0,0,0,0,0,0,0,0,0,0,0,0,0,0,0,0,0,0,0,0,0,0,0,0,0,0,0,0,0,0,0,0,0,0,0,0,0,0,0,0,0,0,0,0,0,0,0,0,0,0,0,0,0,0,0,0,0,0,0,0,0,0,0,0,0,0,0,0,0,0,0,0,0,0,0,0,0,0,0,0,0,0,0,0,0,0,0,0,0,0,0,0,0,0,0,0,0,0,0,0,0,0,0,0,0],"id":12,"left_children":[1,3,5,7,9,11,13,15,17,19,21,23,25,27,29,31,33,35,37,39,41,-1,-1,43,45,-1,47,49,51,53,-1,55,-1,-1,-1,57,59,-1,-1,61,-1,-1,-1,63,65,67,69,71,-1,73,75,77,-1,-1,-1,79,-1,81,-1,83,-1,85,-1,87,89,91,-1,93,95,97,99,-1,-1,101,-1,103,105,-1,-1,-1,-1,-1,-1,-1,-1,-1,-1,-1,-1,-1,-1,-1,-1,-1,-1,-1,-1,-1,-1,-1,-1,-1,-1,-1,-1,-1,-1],"loss_changes":[7.6134827E2,1.7562006E2,1.2448361E2,2.4237122E1,2.1947744E1,6.0505722E1,3.6181305E1,6.515259E0,2.0098412E1,4.6260033E0,3.213974E0,2.344516E1,1.2796013E1,5.5119583E1,1.0987854E0,2.6826782E0,8.034375E0,1.4497299E1,4.1377945E0,2.7536316E0,4.735583E0,0E0,0E0,1.3049383E1,2.1879776E1,0E0,1.2494036E1,2.8448936E1,3.0149788E1,6.590904E0,0E0,1.2155121E1,0E0,0E0,0E0,8.031052E0,2.8428614E1,0E0,0E0,4.341932E0,0E0,0E0,0E0,2.3948717E1,3.2380768E1,2.1710361E1,2.5678215E1,6.893575E0,0E0,4.5642033E0,1.4331518E1,3.458969E0,0E0,0E0,0E0,3.1712341E0,0E0,1.1450167E1,0E0,3.1680489E0,0E0,2.655799E0,0E0,2.6519024E1,2.5138187E0,1.4263756E1,0E0,9.848816E0,7.830943E0,9.600372E0,1.8369677E1,0E0,0E0,6.130603E0,0E0,1.2180229E1,2.2647018E0,0E0,0E0,0E0,0E0,0E0,0E0,0E0,0E0,0E0,0E0,0E0,0E0,0E0,0E0,0E0,0E0,0E0,0E0,0E0,0E0,0E0,0E0,0E0,0E0,0E0,0E0,0E0,0E0,0E0,0E0],"parents":[2147483647,0,0,1,1,2,2,3,3,4,4,5,5,6,6,7,7,8,8,9,9,10,10,11,11,12,12,13,13,14,14,15,15,16,16,17,17,18,18,19,19,20,20,23,23,24,24,26,26,27,27,28,28,29,29,31,31,35,35,36,36,39,39,43,43,44,44,45,45,46,46,47,47,49,49,50,50,51,51,55,55,57,57,59,59,61,61,63,63,64,64,65,65,67,67,68,68,69,69,70,70,73,73,75,75,76,76],"right_children":[2,4,6,8,10,12,14,16,18,20,22,24,26,28,30,32,34,36,38,40,42,-1,-1,44,46,-1,48,50,52,54,-1,56,-1,-1,-1,58,60,-1,-1,62,-1,-1,-1,64,66,68,70,72,-1,74,76,78,-1,-1,-1,80,-1,82,-1,84,-1,86,-1,88,90,92,-1,94,96,98,100,-1,-1,102,-1,104,106,-1,-1,-1,-1,-1,-1,-1,-1,-1,-1,-1,-1,-1,-1,-1,-1,-1,-1,-1,-1,-1,-1,-1,-1,-1,-1,-1,-1,-1,-1],"split_conditions":[-1.736018E-1,1.5496086E0,1.2908013E0,-8.102988E-1,6.746069E-2,7.026838E-1,-6.492013E-1,2.477539E0,-2.0943142E-1,1E0,1.6850367E0,3.994255E-1,4.6618402E-1,5.635388E-1,1.4181408E0,-7.3009723E-1,1E0,9.9187964E-1,-7.466291E-1,1.9333214E0,7.577791E-1,-2.489231E-3,-4.1590046E-2,6.467548E-1,-9.3323934E-1,-4.6135057E-2,1.4356335E0,-1.8838495E-1,1.1658957E0,4.6618402E-1,3.955974E-2,-7.752399E-1,-4.6956256E-2,1.5963927E-2,-3.988267E-2,4.2858118E-1,-6.849545E-1,-1.30924815E-2,-4.6600834E-2,1.9140288E-1,3.270154E-2,-1.7168447E-2,2.5505207E-2,3.7715378E-1,4.166078E-2,1E0,1.5721799E0,1.0304676E0,-4.266854E-2,1E0,-4.5775414E-2,1.0223576E0,-4.2232923E-2,3.6234155E-2,-1.00652E-2,-7.2766304E-1,2.0561633E-3,-9.055467E-1,-4.6303887E-2,-7.6354694E-1,-4.266386E-2,1.8204647E0,-1.1017598E-2,-6.492013E-1,-7.752399E-1,8.1076995E-2,-5.283539E-2,1E0,-7.2766304E-1,-2.3439005E-1,6.254899E-1,2.7801206E-2,-1.6727038E-2,-6.398118E-1,-4.744345E-2,-3.422483E-1,1.5255308E0,1.8728817E-2,4.4967692E-2,-3.1972025E-2,-4.413983E-2,-3.9254952E-2,-1.04335295E-2,5.925371E-3,3.707533E-2,3.349444E-2,4.4411733E-3,-3.3172444E-3,-4.8301823E-2,4.130463E-2,1.01549635E-2,3.4393586E-2,4.4185836E-3,-5.0416477E-2,-2.171779E-4,-1.8864105E-2,2.0915538E-2,1.5362154E-2,2.9552855E-2,-3.075281E-2,1.9596685E-2,-3.8514383E-2,9.294424E-3,3.8602008E-3,-4.9366746E-2,2.752956E-2,4.1316035E-3],"split_indices":[3,5,3,3,6,6,6,0,6,24,5,3,5,1,3,5,20,4,3,5,0,0,0,5,5,0,6,5,5,5,0,5,0,0,0,4,5,0,0,4,0,0,0,1,1,7,5,5,0,9,4,0,0,0,0,4,0,4,0,0,0,5,0,6,5,3,0,24,4,0,0,0,0,5,0,4,4,0,0,0,0,0,0,0,0,0,0,0,0,0,0,0,0,0,0,0,0,0,0,0,0,0,0,0,0,0,0],"split_type":[0,0,0,0,0,0,0,0,0,0,0,0,0,0,0,0,0,0,0,0,0,0,0,0,0,0,0,0,0,0,0,0,0,0,0,0,0,0,0,0,0,0,0,0,0,0,0,0,0,0,0,0,0,0,0,0,0,0,0,0,0,0,0,0,0,0,0,0,0,0,0,0,0,0,0,0,0,0,0,0,0,0,0,0,0,0,0,0,0,0,0,0,0,0,0,0,0,0,0,0,0,0,0,0,0,0,0],"sum_hessian":[1.2977357E3,4.789561E2,8.1877966E2,4.1735574E2,6.160033E1,4.559953E2,3.627844E2,2.8276578E2,1.3458998E2,5.395809E1,7.64224E0,4.2049588E2,3.549941E1,1.5370181E2,2.0908257E2,2.7530698E2,7.4587874E0,9.259E1,4.1999973E1,4.644378E1,7.5143113E0,3.06719E0,4.5750504E0,1.7137141E2,2.4912448E2,1.9078375E1,1.6421032E1,8.156301E1,7.21388E1,1.4554632E1,1.9452794E2,1.5079501E2,1.2451197E2,3.8876388E0,3.5711486E0,7.165401E1,2.0935991E1,4.678322E0,3.732165E1,1.6065954E1,3.0377825E1,4.348333E0,3.1659784E0,1.0932892E2,6.2042496E1,3.8868267E1,2.1025621E2,1.0900393E1,5.52064E0,1.5973478E1,6.558953E1,6.892792E1,3.210886E0,